<?xml version="1.0"?>
<opencv_storage>
<opencv_ml_svm>
  <format>3</format>
  <svmType>C_SVC</svmType>
  <kernel>
    <type>LINEAR</type></kernel>
  <C>1.</C>
  <term_criteria><iterations>100</iterations></term_criteria>
  <var_count>5550</var_count>
  <class_count>2</class_count>
  <class_labels type_id="opencv-matrix">
    <rows>2</rows>
    <cols>1</cols>
    <dt>i</dt>
    <data>
      -1 1</data></class_labels>
  <sv_total>1</sv_total>
  <support_vectors>
    <_>
      -6.30150680e-06 -1.02143376e-05 -1.65158435e-05 -8.67361738e-19
      -3.54206531e-05 -3.06433212e-05 -3.30319381e-05 -6.30150680e-06
      -3.30319381e-05 -8.17157852e-05 -8.67361738e-19 -3.06433212e-05
      -5.10723075e-05 -8.67361738e-19 -4.71593230e-05 -3.06433212e-05
      -3.30319381e-05 -2.04288299e-05 -1.89047114e-05 -8.41044020e-05
      -8.67361738e-19 -8.80172956e-05 -8.67361738e-19 -4.08578162e-05
      -4.96097375e-04 -1.07868831e-03 -5.02443872e-04 -5.60272660e-04
      -6.61553582e-04 -7.61309755e-04 -9.79931559e-04 -1.00102031e-03
      -1.13619736e-03 -1.11490418e-03 -1.21161167e-03 -1.22182618e-03
      -4.55784495e-04 -6.19421189e-04 -1.18488120e-03 -1.09838799e-03
      -1.19748432e-03 -1.00168015e-03 -1.10402971e-03 -9.78202792e-04
      -8.86272290e-04 -8.05420917e-04 -6.43512874e-04 -5.31153462e-04
      -9.12912888e-04 -8.60520930e-04 -3.93335431e-05 -3.93337941e-05
      3.54208059e-05 3.30319381e-05 -3.06433212e-05 -6.30150680e-06
      -1.26031091e-05 -8.67361738e-19 -3.06433212e-05 -3.69448280e-05
      -2.52063146e-05 -1.02143376e-05 -8.67361738e-19 -5.73738143e-05
      -3.06433212e-05 -2.52063146e-05 -8.67361738e-19 -4.56351445e-05
      -2.04288299e-05 -1.02143376e-05 -8.67361738e-19 -2.67303367e-05
      -8.67361738e-19 -8.67361738e-19 -1.26031091e-05 -1.02143376e-05
      -6.06270623e-05 -8.67361738e-19 -8.67361738e-19 -4.80238559e-05
      -1.02143376e-05 -1.02143376e-05 -1.02143376e-05 -1.02143376e-05
      -8.01915157e-05 -1.26031091e-05 -2.04288299e-05 -9.19302765e-05
      -8.67361738e-19 -8.67361738e-19 -8.67361738e-19 -8.01915157e-05
      -3.06433212e-05 -2.04288299e-05 -3.06433212e-05 -3.57507088e-04
      -8.71235039e-04 -1.65440806e-03 -2.33980385e-03 -2.50821770e-03
      -2.43412284e-03 -1.67554186e-03 -1.26507285e-03 -1.23834226e-03
      -1.18249271e-03 -1.13924593e-03 -1.17857975e-03 -1.19509560e-03
      -1.11490418e-03 -4.48823150e-04 7.40335847e-04 9.25925910e-04
      -2.64757487e-04 -1.15901500e-03 -9.91465640e-04 -1.16445217e-03
      -1.19509560e-03 -1.21552462e-03 -1.23442931e-03 -1.22573914e-03
      -1.54798559e-03 -2.24421034e-03 -2.52625835e-03 -2.50516972e-03
      -2.08880915e-03 -1.22894731e-03 -5.84614521e-04 -2.95560400e-04
      -1.22573751e-04 -1.80403695e-05 -7.15012939e-05 -3.78095210e-05
      -5.82383509e-05 -8.67361738e-19 -3.06433212e-05 -4.56351445e-05
      -1.26031091e-05 -1.02143376e-05 -1.26031091e-05 -2.04288299e-05
      -5.10723075e-05 -8.67361738e-19 -1.89047114e-05 -8.67361738e-19
      -1.65158435e-05 -6.30150680e-06 -8.67361738e-19 -8.67361738e-19
      -8.67361738e-19 -8.67361738e-19 -1.02143376e-05 -6.30150680e-06
      -4.41111224e-05 -1.32333560e-04 -3.16604070e-04 -8.10560450e-05
      -6.30150680e-06 -7.15012939e-05 -6.12868025e-05 -5.73738143e-05
      -1.02143376e-05 -8.67361738e-19 -7.15012939e-05 -5.73738143e-05
      -1.12359266e-04 -3.92927905e-04 -6.49814378e-04 -9.79067059e-04
      -1.53451751e-03 -2.29030009e-03 -2.56777555e-03 -2.38370989e-03
      -1.86957198e-03 -1.54341292e-03 -2.14750227e-03 -2.43498757e-03
      -2.32938421e-03 -1.71182712e-03 -1.17466680e-03 -1.22030196e-03
      -1.26116024e-03 -1.30593078e-03 -1.32788403e-03 -9.54784118e-05
      5.63641137e-04 4.27599472e-04 -1.77194452e-04 -1.38525828e-03
      -1.38917100e-03 -1.37982098e-03 -1.25399418e-03 -1.24616816e-03
      -1.41890510e-03 -2.12381990e-03 -2.48626457e-03 -2.20355694e-03
      -1.72941259e-03 -1.63077074e-03 -2.14597839e-03 -2.45541637e-03
      -2.34330655e-03 -1.80833007e-03 -1.30308734e-03 -7.86515942e-04
      -5.80701686e-04 -2.20805698e-04 -1.02144775e-04 -3.06433212e-05
      -2.28174467e-05 -1.26031091e-05 -1.18660770e-04 -4.56351445e-05
      -1.43867175e-04 -8.67361738e-19 -6.30159266e-05 -2.74881546e-04
      -2.76405714e-04 -2.52063146e-05 -8.67361738e-19 -1.02143376e-05
      -8.67361738e-19 -8.67361738e-19 -8.67361738e-19 -5.04127238e-05
      -8.67361738e-19 -8.67361738e-19 -2.28174467e-05 -1.07909809e-03
      -1.36419444e-03 -1.09952712e-03 -9.07225709e-04 -7.07963132e-04
      -4.60016978e-04 -4.44819918e-04 -3.29866918e-04 -2.55112216e-04
      -7.38446601e-04 -1.06465095e-03 -1.64032564e-03 -1.84873329e-03
      -2.06690072e-03 -2.34590028e-03 -2.38630339e-03 -2.04708637e-03
      -1.80111895e-03 -1.68184319e-03 -1.69901899e-03 -1.65185961e-03
      -1.74770271e-03 -1.99651369e-03 -2.37699877e-03 -2.79031065e-03
      -2.68862047e-03 -2.20578606e-03 -1.71924336e-03 -1.19204749e-03
      -7.37877388e-04 -3.43879481e-04 1.61817865e-04 1.20959892e-04
      -5.94669546e-04 -8.99785140e-04 -1.24616828e-03 -1.87789742e-03
      -2.06867489e-03 -2.57910485e-03 -2.87507498e-03 -2.70884461e-03
      -2.20339722e-03 -1.94416684e-03 -1.88374438e-03 -1.87287026e-03
      -1.74551888e-03 -1.83938327e-03 -2.09490582e-03 -2.25026207e-03
      -2.36023287e-03 -2.12773285e-03 -1.90305896e-03 -1.78246398e-03
      -1.37195026e-03 -9.70331719e-04 -6.11959782e-04 -2.61413807e-04
      -2.77270417e-04 -4.09604167e-04 -5.48239448e-04 -7.70979153e-04
      -1.08671898e-03 -1.32160739e-03 -1.32333662e-03 -3.90699250e-04
      -2.04288299e-05 -1.89047114e-05 -8.67361738e-19 -8.67361738e-19
      -1.02143376e-05 -8.67361738e-19 -8.67361738e-19 -7.56191366e-05
      -7.38811505e-04 -1.32877345e-03 -7.57716305e-04 -7.66406651e-04
      -1.16015447e-03 -1.10278046e-03 -1.22708338e-03 -1.56827935e-03
      -2.00989144e-03 -2.42629694e-03 -2.49932264e-03 -2.45368714e-03
      -2.31764559e-03 -2.37893243e-03 -2.16335873e-03 -1.97974755e-03
      -1.92653632e-03 -1.83897349e-03 -1.90026045e-03 -1.95219752e-03
      -1.98457018e-03 -2.18057935e-03 -1.98131683e-03 -1.96871348e-03
      -1.88918144e-03 -1.97979249e-03 -1.77179498e-03 -1.65593252e-03
      -1.34776835e-03 -1.05830445e-03 -7.73413049e-04 -9.25970788e-04
      -1.22153142e-03 -1.31976348e-03 -8.47962860e-04 -7.62334035e-04
      -1.10307534e-03 -1.31626043e-03 -1.81392732e-03 -2.25487957e-03
      -2.16624700e-03 -1.88679295e-03 -1.92048470e-03 -2.03304878e-03
      -2.25121644e-03 -2.29207450e-03 -2.14017648e-03 -1.91352330e-03
      -1.83876848e-03 -2.02151504e-03 -2.07299762e-03 -2.05557188e-03
      -2.23745382e-03 -2.38218578e-03 -2.44433712e-03 -2.60146754e-03
      -2.44194851e-03 -2.21722969e-03 -1.92731095e-03 -1.47873769e-03
      -1.22012210e-03 -1.21686887e-03 -9.51541995e-04 -6.84485829e-04
      -1.05541584e-03 -1.09647890e-03 -1.57539966e-04 -8.67361738e-19
      -8.67361738e-19 -8.67361738e-19 -2.67303367e-05 -1.89047114e-05
      -8.67361738e-19 -3.46588058e-04 -1.32724934e-03 -7.37287512e-04
      -4.34810587e-04 -4.89136146e-04 -4.81969997e-04 -1.04158325e-03
      -1.70573033e-03 -1.96978310e-03 -1.87393965e-03 -1.81981886e-03
      -1.72788836e-03 -1.49752758e-03 -1.43537612e-03 -1.83440093e-03
      -1.83572026e-03 -1.83094270e-03 -1.96632487e-03 -1.98045233e-03
      -2.06476171e-03 -2.32094363e-03 -2.55084969e-03 -2.62408028e-03
      -2.33593583e-03 -2.12711841e-03 -1.94437173e-03 -1.17441709e-03
      -3.09278257e-04 -2.13384883e-05 -1.25417384e-04 -8.32561112e-04
      -7.53233908e-04 -1.21197652e-03 -1.18133309e-03 -1.16242829e-03
      -1.29760534e-03 -9.12957767e-04 -7.44338671e-04 -3.80120066e-04
      -1.58904324e-04 -3.58621648e-04 -1.40630209e-03 -2.06781016e-03
      -2.22057267e-03 -2.52066087e-03 -2.51913676e-03 -2.16167443e-03
      -2.22860347e-03 -2.32597115e-03 -2.15974054e-03 -1.96068292e-03
      -1.98741350e-03 -1.93156383e-03 -2.03457312e-03 -1.74094632e-03
      -1.32779416e-03 -1.57141779e-03 -1.86458975e-03 -1.85046229e-03
      -1.87937671e-03 -1.74877211e-03 -1.24892162e-03 -8.49691743e-04
      -4.53715387e-04 -4.66318597e-04 -6.63647021e-04 -1.28313806e-03
      -7.37287512e-04 -5.34609244e-05 -8.67361738e-19 -8.67361738e-19
      -2.28174467e-05 -8.67361738e-19 -8.67361738e-19 -7.87700294e-04
      -1.32963818e-03 -3.97000869e-04 -5.28469915e-04 -5.54336002e-04
      -1.51948072e-03 -1.88633800e-03 -1.68118358e-03 -1.44299702e-03
      -1.62838202e-03 -2.07085838e-03 -1.81244779e-03 -6.18876191e-04
      -1.43842446e-03 -2.02934095e-03 -2.20644544e-03 -2.13885680e-03
      -2.16274406e-03 -2.45566596e-03 -2.51781754e-03 -2.48478539e-03
      -2.28486327e-03 -2.48392089e-03 -2.54454836e-03 -2.50999210e-03
      -1.53208419e-03 -1.05648032e-04 -3.15784739e-04 -8.41046567e-04
      -3.62739433e-04 -3.29707225e-04 5.25516734e-05 -7.32754852e-05
      -3.53184470e-04 -3.76002281e-04 -2.09976788e-04 -1.13268921e-04
      -4.75098845e-04 -3.91653826e-04 -7.86720833e-04 -3.55778175e-04
      -3.35349177e-04 -1.51754706e-03 -2.57910485e-03 -2.59562070e-03
      -2.40982603e-03 -1.99523941e-03 -1.82596047e-03 -2.02542823e-03
      -2.40286486e-03 -2.37115170e-03 -2.35595484e-03 -2.11431016e-03
      -2.22905818e-03 -1.99239585e-03 -8.60770757e-04 -8.64683650e-04
      -2.11562938e-03 -1.89091056e-03 -1.50753721e-03 -1.66009495e-03
      -1.76594791e-03 -1.81417691e-03 -9.99860815e-04 -5.34771534e-04
      -4.23731399e-04 -9.76748415e-04 -1.16340769e-03 -4.17222545e-05
      -8.67361738e-19 -8.67361738e-19 -8.67361738e-19 -2.52063146e-05
      -1.02143376e-05 -2.37071930e-04 -1.20990770e-03 -9.20033955e-04
      -5.85843984e-04 -6.77774427e-04 -1.86718325e-03 -1.78592210e-03
      -1.92328310e-03 -2.17798562e-03 -2.49549956e-03 -2.51745270e-03
      -1.70420622e-03 -6.41898776e-04 -1.67661102e-03 -2.04499252e-03
      -1.80421211e-03 -1.74272025e-03 -2.16340367e-03 -2.62712874e-03
      -2.47675460e-03 -2.50043697e-03 -2.43045972e-03 -1.47796341e-03
      -6.19126251e-04 -7.89064623e-04 -4.28349042e-04 6.40405779e-05
      -5.67029172e-04 -2.61254143e-04 -3.61420127e-04 -1.08965277e-03
      -1.66771607e-03 -1.24459923e-03 -2.80363834e-04 -3.10347677e-04
      -1.49777776e-03 -1.86504470e-03 -1.23850221e-03 -6.16532576e-04
      -9.57068987e-04 -9.32976953e-04 -4.25550563e-04 -2.07588077e-04
      -5.76539140e-04 -1.00138516e-03 -1.82546105e-03 -1.62471912e-03
      -1.78815087e-03 -2.01023114e-03 -2.51131132e-03 -2.64908210e-03
      -2.63236091e-03 -2.24969210e-03 -2.17168406e-03 -2.29293876e-03
      -1.42425194e-03 -1.17692037e-03 -2.51959171e-03 -2.55851564e-03
      -2.34619505e-03 -2.12864229e-03 -1.88131072e-03 -2.12275051e-03
      -1.16654590e-03 -5.42597321e-04 -6.59279409e-04 -1.24771742e-03
      -4.97826608e-04 -6.30150680e-06 -8.67361738e-19 -8.67361738e-19
      -2.91190499e-05 -8.67361738e-19 -3.93335431e-05 -1.26031091e-05
      -5.73445810e-04 -1.29726552e-03 -5.60842629e-04 -9.74654336e-04
      -1.87871710e-03 -1.60099182e-03 -1.64453336e-03 -2.01398414e-03
      -2.01637275e-03 -1.92901492e-03 -5.75264567e-04 -2.05154138e-04
      -1.38917100e-03 -1.47957739e-03 -1.36874209e-03 -1.52673677e-03
      -2.04062508e-03 -2.59800954e-03 -2.48696911e-03 -1.82957889e-03
      -5.95648889e-04 -2.99883366e-04 -1.06592535e-03 -1.03289320e-03
      -4.29008709e-04 -2.08702375e-04 2.71993369e-04 -2.62163550e-04
      -1.39786152e-03 -1.51977572e-03 -1.51129032e-03 -8.92369018e-04
      -5.74189398e-05 -3.95111972e-04 -1.38500857e-03 -2.20471621e-03
      -2.54825642e-03 -2.51934188e-03 -1.30563602e-03 -7.15464193e-05
      -4.91205079e-04 -4.77282563e-04 -1.07593485e-03 -1.17762515e-03
      -3.18583247e-04 -4.39512005e-05 -1.16684102e-03 -1.96373160e-03
      -2.46328698e-03 -2.66168523e-03 -2.50089192e-03 -1.88984128e-03
      -1.74337998e-03 -2.07304233e-03 -1.98493479e-03 -1.12168526e-03
      -2.27225991e-03 -2.48248666e-03 -2.25039665e-03 -2.19845958e-03
      -1.85482996e-03 -1.78765121e-03 -1.58381613e-03 -5.21303795e-04
      -1.06888358e-03 -1.02716126e-03 -2.04288299e-05 -1.89047114e-05
      -8.67361738e-19 -8.67361738e-19 -1.02143376e-05 -6.30150680e-06
      -1.02143376e-05 -8.67361738e-19 -4.41111224e-05 -1.12473348e-03
      -9.45240376e-04 -1.14830094e-03 -1.84939289e-03 -1.82047847e-03
      -1.82163785e-03 -1.93292787e-03 -1.89598277e-03 -1.68778002e-03
      -2.86870083e-04 -4.98985697e-04 -1.53303833e-03 -1.52826123e-03
      -1.43002893e-03 -1.42459210e-03 -2.15537287e-03 -2.43132445e-03
      -1.07766397e-03 -4.05941129e-04 -7.08008301e-04 -1.48578919e-03
      -1.10200595e-03 -1.05179800e-03 -7.28687097e-04 1.55516260e-04
      -1.19820288e-04 -1.05407182e-03 -1.02429290e-03 -8.72394885e-04
      -8.97601189e-04 -3.79300385e-04 2.37027314e-04 -2.28881589e-04
      -7.86970835e-04 -1.30395207e-03 -1.86631898e-03 -2.33832467e-03
      -2.04952015e-03 -7.38491828e-04 -4.83379292e-04 -4.75758483e-04
      -9.72060894e-04 -1.31041359e-03 -1.22544426e-03 -4.13606991e-04
      3.59806116e-04 -9.21693048e-04 -2.49393075e-03 -2.56345328e-03
      -2.25421973e-03 -1.95981818e-03 -1.84791361e-03 -2.10368587e-03
      -2.22378108e-03 -1.23795751e-03 -1.70893862e-03 -2.31819018e-03
      -2.13000667e-03 -2.26213527e-03 -2.18667602e-03 -1.75919151e-03
      -1.64642232e-03 -9.02903033e-04 -1.32008316e-03 -3.60715261e-04
      -3.78095210e-05 -8.67361738e-19 -8.67361738e-19 -8.67361738e-19
      -1.26031091e-05 -8.67361738e-19 -3.15079160e-05 -8.67361738e-19
      -1.02143376e-05 -5.03263494e-04 -1.40744110e-03 -1.50840171e-03
      -1.71487546e-03 -2.01084581e-03 -2.27321428e-03 -1.82687002e-03
      -2.00204062e-03 -1.31853402e-03 -5.10723075e-05 -8.17159424e-04
      -1.56281760e-03 -1.44415663e-03 -1.50000618e-03 -1.51499803e-03
      -2.14668293e-03 -1.62986154e-03 -6.97793846e-04 -1.11069623e-03
      -1.01398840e-03 -9.79432021e-04 -7.04095408e-04 -1.05266250e-03
      -6.36756711e-04 3.74138384e-04 2.91557924e-04 5.33862156e-04
      1.00805156e-03 1.04347256e-03 1.26992061e-03 1.19841914e-03
      1.41843630e-04 -1.37815689e-04 8.52035708e-04 5.28674922e-04
      8.25806055e-05 -4.43161589e-05 -6.60643796e-04 -1.61952674e-04
      4.66599486e-05 -6.50474278e-04 -1.04290270e-03 -8.01667804e-04
      -1.09636388e-03 -5.79632469e-04 -4.83379292e-04 -8.41496221e-05
      -1.64139527e-03 -2.70645577e-03 -2.43482762e-03 -1.99828786e-03
      -1.74815743e-03 -2.02979567e-03 -2.49479502e-03 -1.38400868e-03
      -1.35381997e-03 -2.29450781e-03 -2.07959372e-03 -2.30950001e-03
      -2.44854484e-03 -1.66075455e-03 -1.73291564e-03 -1.52853574e-03
      -9.98701435e-04 -2.04288299e-05 -6.30150680e-06 -1.02143376e-05
      -8.67361738e-19 -8.67361738e-19 -8.67361738e-19 -8.67361738e-19
      -8.67361738e-19 -4.17222545e-05 -3.15079160e-05 -4.56351445e-05
      -1.32597506e-03 -2.03559757e-03 -1.50733232e-03 -2.10018270e-03
      -2.56440742e-03 -1.82621041e-03 -2.05789041e-03 -9.83844511e-04
      -4.08578162e-05 -1.14641176e-03 -1.58172206e-03 -1.37895648e-03
      -1.50630798e-03 -1.37982098e-03 -1.33150234e-03 -5.08495898e-04
      -8.30582168e-04 -1.16263318e-03 -9.65304615e-04 -1.44493103e-03
      -5.30244142e-04 -9.30748240e-04 -9.50357586e-04 9.01129271e-04
      1.21015776e-03 1.31794461e-03 1.16060930e-03 9.56979056e-04
      1.06781442e-03 1.09693373e-03 6.94776463e-05 -2.40825146e-04
      8.97671271e-04 5.68668533e-04 -5.43257120e-05 3.82643193e-05
      8.25804746e-05 7.18178053e-04 4.50212363e-04 -6.57435448e-04
      -9.28814232e-04 -6.71063259e-04 -1.58554537e-03 -2.83866859e-04
      -3.51250521e-04 -2.73652462e-04 -8.01462913e-04 -1.94127869e-03
      -2.48915306e-03 -1.25262956e-03 -8.28852877e-04 -1.61100144e-03
      -2.69669620e-03 -1.60003721e-03 -1.18886388e-03 -2.07131333e-03
      -2.12914194e-03 -2.55114469e-03 -2.52787210e-03 -1.63381908e-03
      -1.84177200e-03 -2.05639144e-03 -3.24429828e-04 -4.41111224e-05
      -8.67361738e-19 -3.30319381e-05 -8.67361738e-19 -8.67361738e-19
      -8.67361738e-19 -6.30150680e-06 -8.67361738e-19 -2.28174467e-05
      -8.67361738e-19 -2.28174467e-05 -1.03482697e-03 -2.49693380e-03
      -1.55622093e-03 -2.21929862e-03 -2.56003975e-03 -2.01810198e-03
      -1.83469581e-03 -6.68719178e-04 -1.63431730e-04 -1.45132246e-03
      -1.32940838e-03 -1.51022070e-03 -1.53934001e-03 -7.45657948e-04
      -1.01693686e-05 -2.92792720e-05 -1.27890543e-03 -7.10397027e-04
      -1.01551251e-03 -1.02181418e-03 -7.01706740e-04 -1.31453131e-03
      -4.04666818e-04 1.08041766e-03 9.91535489e-04 9.48288827e-04
      8.68097064e-04 9.45900101e-04 1.08346599e-03 7.72913394e-04
      -1.32628382e-04 -5.33337472e-04 5.11499355e-04 4.82175034e-04
      -1.43207784e-04 -2.44693132e-04 -3.69450790e-05 7.04710081e-04
      7.22295663e-04 -4.17519797e-04 -1.19784917e-03 -8.23620998e-04
      -1.02638663e-03 -6.19625847e-04 1.88908791e-06 -6.55911339e-04
      -6.31524541e-04 -1.30411191e-03 -2.56695622e-03 -1.17873959e-03
      -2.77270417e-04 -1.24566839e-03 -2.72972835e-03 -1.95993343e-03
      -1.06085290e-03 -1.70750427e-03 -2.21650000e-03 -2.58915918e-03
      -2.49224645e-03 -1.80660083e-03 -2.03102501e-03 -2.12422968e-03
      -9.19302765e-05 -6.30150680e-06 -2.28174467e-05 -8.67361738e-19
      -8.67361738e-19 -8.67361738e-19 -8.67361738e-19 -1.89047114e-05
      -2.52063146e-05 -8.67361738e-19 -8.67361738e-19 -2.04288299e-05
      -9.39688121e-04 -2.52452889e-03 -1.85762846e-03 -2.25690333e-03
      -2.52395938e-03 -2.22107256e-03 -1.72863796e-03 -3.08823248e-04
      -4.31397144e-04 -1.51413353e-03 -1.37895648e-03 -1.52739661e-03
      -1.11642829e-03 2.57296284e-04 1.01428328e-03 -2.49114746e-05
      -9.60527163e-04 1.16932031e-04 -1.65365898e-04 1.29535110e-04
      -1.22119207e-04 -1.15633162e-03 -5.59613283e-04 3.80440004e-04
      1.00566295e-03 1.04824989e-03 1.18342706e-03 1.06390147e-03
      9.34161362e-04 -1.40909018e-04 -9.60822101e-04 -1.18920405e-03
      -1.59358970e-04 2.20306232e-04 1.01485413e-04 -8.27854165e-05
      1.33652939e-04 2.67465803e-04 1.36406568e-04 -5.99196937e-04
      -1.15612673e-03 -1.94485197e-04 1.42343386e-04 5.00215334e-04
      7.30986008e-04 -5.25306794e-04 -1.19546044e-03 -1.08462537e-03
      -2.16904585e-03 -1.24632800e-03 -2.96834711e-04 -1.02725101e-03
      -2.62367050e-03 -2.37481459e-03 -9.83049977e-04 -1.31457613e-03
      -2.34232703e-03 -2.50114151e-03 -2.37490470e-03 -2.07238272e-03
      -2.26200046e-03 -1.78744632e-03 -2.04289696e-04 -8.67361738e-19
      -5.82383509e-05 -8.67361738e-19 -8.67361738e-19 -8.67361738e-19
      -8.67361738e-19 -2.52063146e-05 -1.02143376e-05 -3.78095210e-05
      -8.67361738e-19 -3.06433212e-05 -9.28859110e-04 -2.24268599e-03
      -2.16686167e-03 -2.22778390e-03 -2.46638036e-03 -2.52202526e-03
      -1.97481038e-03 -4.50461986e-04 -1.15917507e-03 -1.85289595e-03
      -1.83399138e-03 -1.83876883e-03 -1.00117992e-03 5.76238308e-05
      1.06210250e-03 1.10265646e-04 -4.40042815e-04 -5.36661173e-05
      9.49787427e-05 -1.07786938e-04 -2.27517390e-04 -1.42841495e-03
      -1.71574019e-03 -5.82885754e-04 3.53759351e-05 4.32626839e-04
      -3.53184470e-04 -3.09322854e-06 5.71057200e-04 -5.37909858e-04
      -9.91215813e-04 -1.19941856e-03 -4.41656768e-04 4.75873443e-04
      -6.19785860e-04 -1.27346849e-03 -4.47708626e-05 2.48561089e-04
      -8.94552912e-04 -1.27874571e-03 -1.04920426e-03 -4.56353999e-04
      -1.15612667e-04 6.20605424e-04 6.34278113e-04 -3.08208808e-04
      -1.09961722e-03 -5.09815174e-04 -2.27988116e-03 -1.54254818e-03
      -2.90533120e-04 -7.41245225e-04 -2.47197715e-03 -2.62387539e-03
      -1.07650447e-03 -9.05996305e-04 -2.38100137e-03 -2.60872347e-03
      -2.28841137e-03 -2.33206782e-03 -2.34783418e-03 -1.46911282e-03
      -3.86626285e-04 -1.89047114e-05 -3.30319381e-05 -8.67361738e-19
      -8.67361738e-19 -8.67361738e-19 -6.30150680e-06 -8.67361738e-19
      -5.19367459e-05 -8.67361738e-19 -1.26031091e-05 -6.99770171e-05
      -1.03166373e-03 -2.04906520e-03 -2.40764208e-03 -2.32057902e-03
      -2.40661763e-03 -2.94118444e-03 -2.31982931e-03 -1.09017733e-03
      -2.06837989e-03 -2.58693029e-03 -2.62778858e-03 -2.28527305e-03
      -1.09083706e-03 -2.35707819e-04 7.91133556e-04 2.79134430e-04
      -2.73452624e-05 -6.06273134e-05 1.48440042e-04 7.56737136e-04
      -1.42503224e-04 -8.62910063e-04 -9.26790468e-04 -2.70264194e-04
      -2.99223728e-04 4.02527920e-04 -5.47125179e-04 -2.57001346e-04
      1.07013306e-03 -3.00747895e-04 -1.05484633e-03 -9.99611075e-05
      1.55403744e-03 2.05627666e-03 -5.62366797e-04 -1.54489232e-03
      6.58594872e-05 1.00422872e-03 9.88468091e-05 -3.78346100e-04
      -3.48727102e-04 -5.44856812e-05 2.21670605e-04 6.35597447e-04
      1.46490533e-03 1.37215538e-03 -9.25000350e-05 3.14965291e-04
      -1.17371220e-03 -1.81833957e-03 -4.83084295e-04 -6.58005069e-04
      -2.37374520e-03 -2.66473345e-03 -1.42771006e-03 -7.77985319e-04
      -2.33643549e-03 -2.53569800e-03 -2.33404664e-03 -2.51699798e-03
      -2.27201008e-03 -1.40762096e-03 -5.15501830e-04 -2.04288299e-05
      -1.26031091e-05 -6.30150680e-06 -8.67361738e-19 -8.67361738e-19
      -1.26031091e-05 -2.04288299e-05 -8.67361738e-19 -5.58496358e-05
      -8.67361738e-19 -1.55605856e-04 -1.16053922e-03 -1.73246092e-03
      -2.70188344e-03 -2.40554800e-03 -2.19170330e-03 -2.84188287e-03
      -2.03621225e-03 -1.07909809e-03 -2.30158423e-03 -2.58911401e-03
      -2.39503896e-03 -1.44900393e-03 -1.07432064e-03 -4.60017036e-04
      -1.12388425e-05 2.57181266e-04 5.71601966e-04 -3.86741995e-05
      -7.17358256e-04 7.66541809e-04 1.32920337e-03 7.72433705e-04
      2.70649180e-04 5.15342224e-04 6.43967767e-04 8.97396239e-04
      8.07854580e-04 6.79638644e-04 3.58871621e-04 -5.83910209e-04
      1.44571997e-04 1.42652600e-03 1.44625048e-03 9.19919286e-04
      7.57441740e-04 2.39550936e-04 3.17578742e-05 1.97501527e-03
      1.16918492e-03 1.12639274e-03 7.22885423e-04 1.28270348e-03
      5.24647126e-04 1.55561225e-04 2.05409271e-03 1.64164510e-03
      -2.82662455e-04 5.48169541e-04 8.13512816e-05 -1.39085529e-03
      -5.96967875e-04 -5.40868263e-04 -2.18988443e-03 -2.77079130e-03
      -1.63504842e-03 -5.87163260e-04 -2.06781016e-03 -2.57482682e-03
      -2.30253860e-03 -2.82318285e-03 -2.14816188e-03 -1.25638256e-03
      -6.86759653e-04 -1.02143376e-05 -1.02143376e-05 -1.26031091e-05
      -8.67361738e-19 -8.67361738e-19 -8.67361738e-19 -2.04288299e-05
      -1.26031091e-05 -1.65158435e-05 -8.67361738e-19 -2.62528192e-04
      -1.15423766e-03 -1.48126122e-03 -2.89941672e-03 -2.46856408e-03
      -2.26950645e-03 -2.90316972e-03 -1.69196771e-03 -1.23297516e-03
      -2.36134697e-03 -2.68038502e-03 -2.05099932e-03 -1.14190928e-03
      -1.17321254e-03 -7.43429235e-04 -7.14719703e-04 2.36752443e-04
      6.33343647e-04 -1.25372462e-04 -1.76569831e-03 -2.14209416e-04
      1.43134827e-03 7.70249811e-04 1.40863995e-04 -1.46006336e-04
      6.15818935e-05 1.03099504e-04 1.54786496e-04 -1.87728845e-04
      -1.02918514e-03 -1.46470056e-03 2.84776557e-04 7.48706458e-04
      -3.58621794e-04 -6.48950110e-04 5.35976200e-04 7.65926961e-04
      -5.31723315e-04 6.93926006e-04 1.88720273e-03 5.73695695e-04
      4.49892425e-04 1.41635630e-03 -9.16354475e-05 -1.05382199e-03
      9.26380628e-04 2.60094879e-04 -1.18458632e-03 -2.00741822e-04
      5.33382583e-04 -1.11353956e-03 -7.25843420e-04 -4.34810587e-04
      -2.04296852e-03 -2.82816542e-03 -1.77652715e-03 -4.07215208e-04
      -1.93349749e-03 -2.56374781e-03 -2.30645156e-03 -2.87750876e-03
      -2.15578265e-03 -1.19509560e-03 -8.54104408e-04 -8.67361738e-19
      -2.04288299e-05 -1.26031091e-05 -8.67361738e-19 -8.67361738e-19
      -8.67361738e-19 -2.04288299e-05 -1.26031091e-05 -8.67361738e-19
      -2.04288299e-05 -4.23571386e-04 -1.18488120e-03 -1.34023733e-03
      -2.98743439e-03 -2.48116744e-03 -2.23169685e-03 -2.76712817e-03
      -1.31946849e-03 -1.36728771e-03 -2.54520774e-03 -2.49327067e-03
      -1.52050541e-03 -1.06410624e-03 -1.12844142e-03 1.68049490e-04
      -4.20433440e-04 -5.57544525e-04 3.93427967e-04 1.19775366e-04
      -1.14286388e-03 -3.25323635e-05 3.78436060e-04 -3.80689773e-04
      -1.39212946e-03 -1.00052066e-03 -3.37647856e-04 2.01331393e-04
      2.88689451e-04 4.91836254e-05 -3.05070571e-04 -3.72454233e-04
      5.21438953e-04 9.27994843e-04 9.89441760e-04 6.85645500e-04
      3.87126434e-04 3.51500581e-04 -3.25323163e-05 8.14975763e-04
      1.07898354e-03 -6.68309745e-04 -1.26716681e-03 3.81484424e-04
      5.31858415e-04 -2.17142820e-04 8.88571027e-04 6.66740758e-04
      -6.29045942e-04 -1.42253208e-04 6.30090421e-04 -9.78362514e-04
      -8.03646457e-04 -4.55239409e-04 -1.82216254e-03 -2.72602029e-03
      -2.07513617e-03 -4.04826482e-04 -1.73246092e-03 -2.58961390e-03
      -2.30884016e-03 -2.98377150e-03 -2.17514229e-03 -1.11337972e-03
      -1.06860872e-03 -8.67361738e-19 -2.04288299e-05 -6.30150680e-06
      -8.67361738e-19 -8.67361738e-19 -1.89047114e-05 -1.02143376e-05
      -8.67361738e-19 -1.26031091e-05 -3.06433212e-05 -5.92440425e-04
      -1.23204058e-03 -1.42434193e-03 -3.04003106e-03 -2.52375449e-03
      -2.23256135e-03 -2.55653681e-03 -1.19537045e-03 -1.51898095e-03
      -2.71255267e-03 -2.03122990e-03 -1.04520167e-03 -1.03976449e-03
      -1.05694006e-03 2.99563573e-04 3.91698908e-04 1.97418660e-04
      7.36148213e-04 -2.93331919e-04 -9.37709468e-04 8.11107806e-04
      2.57181440e-04 -7.38401955e-04 -1.14916544e-03 -6.35642326e-04
      -6.11300406e-04 -4.34066533e-05 3.68426496e-04 6.91377383e-04
      2.50220182e-04 3.24520166e-04 1.61063683e-03 1.82464137e-03
      1.12548342e-03 5.22873248e-04 1.97168847e-04 -2.10956321e-04
      -1.49464424e-04 1.47018256e-03 1.28566206e-03 -5.68553340e-04
      -1.11526868e-03 2.08497688e-04 9.54975258e-04 3.29002709e-04
      1.24241540e-03 1.42998400e-03 -4.18499374e-04 -1.93575688e-04
      2.89554038e-04 -8.02327413e-04 -1.02445262e-03 -5.10224781e-04
      -1.56049849e-03 -2.69298814e-03 -2.35092756e-03 -4.77852125e-04
      -1.52120984e-03 -2.57548643e-03 -2.31753057e-03 -3.07743088e-03
      -2.20405660e-03 -1.06230727e-03 -1.20769872e-03 -8.67361738e-19
      -8.67361738e-19 -8.67361738e-19 -8.67361738e-19 -8.67361738e-19
      -1.26031091e-05 -1.02143376e-05 -1.02143376e-05 -1.26031091e-05
      -2.04288299e-05 -7.35443493e-04 -1.22182618e-03 -1.51713693e-03
      -3.07611166e-03 -2.48289644e-03 -2.28754664e-03 -2.40093051e-03
      -1.18993339e-03 -1.74456451e-03 -2.48392089e-03 -1.44290691e-03
      -1.00043078e-03 -1.60156144e-03 -1.73805817e-03 -1.27494789e-03
      -7.75346998e-04 -2.79597825e-05 2.96515063e-04 -5.12322331e-05
      -1.08005269e-03 2.27607423e-04 5.36430860e-04 -8.28603283e-04
      -4.31147608e-04 5.61342458e-04 7.68680649e-04 -1.68164392e-04
      -1.08894799e-03 -4.05441300e-04 5.26866861e-05 -2.08567406e-04
      3.29752307e-04 1.02948013e-03 1.19480683e-04 -8.34540289e-04
      -9.71151632e-04 -8.29672732e-04 -2.70764023e-04 2.30859057e-03
      2.44504213e-03 4.01534562e-05 -7.87335506e-04 1.86544523e-04
      2.50220241e-04 2.10796439e-04 1.22025737e-03 5.21144189e-04
      -1.39909075e-03 -1.20369613e-03 -5.62981586e-04 -5.98901883e-04
      -1.21852790e-03 -4.22207377e-04 -1.24384928e-03 -2.73623480e-03
      -2.41851597e-03 -5.22622955e-04 -1.30431680e-03 -2.48355605e-03
      -2.28058547e-03 -3.06874071e-03 -2.25990661e-03 -1.05209276e-03
      -1.24225509e-03 -1.02143376e-05 -8.67361738e-19 -1.02143376e-05
      -8.67361738e-19 -8.67361738e-19 -8.67361738e-19 -6.30150680e-06
      -2.67303367e-05 -8.67361738e-19 -8.67361738e-19 -8.39977001e-04
      -1.16445217e-03 -1.59189163e-03 -3.15477932e-03 -2.36489507e-03
      -2.38338998e-03 -2.32007913e-03 -1.12559809e-03 -1.91907538e-03
      -1.96841871e-03 -1.06410624e-03 -1.22123677e-03 -2.28679739e-03
      -2.74492521e-03 -2.56563677e-03 -2.68190913e-03 -1.87496422e-03
      -9.85438819e-04 5.74641126e-05 -9.34096897e-05 3.62784485e-04
      2.87824747e-04 -8.38158187e-04 -8.43185466e-04 -6.59324578e-04
      -1.93985325e-04 -9.20455350e-05 -3.78051336e-04 1.22663798e-04
      1.47210725e-04 -7.51664804e-04 -7.55782588e-04 6.33753429e-04
      9.86848143e-04 6.51543844e-04 2.15663866e-04 -5.77108993e-04
      -1.11481419e-03 7.89109676e-04 1.72595470e-03 -8.11012651e-05
      -1.15526223e-03 7.17963849e-05 7.20496697e-04 1.08853821e-03
      4.31807450e-04 -3.49841634e-04 -1.18103810e-03 -1.40443770e-03
      -1.06390147e-03 -4.15040995e-04 -1.07943790e-03 -4.83494165e-04
      -1.22189603e-03 -2.52259499e-03 -2.41460325e-03 -6.65625907e-04
      -1.07395579e-03 -2.47334153e-03 -2.25537899e-03 -2.98051815e-03
      -2.40159011e-03 -1.07252179e-03 -1.21552462e-03 -2.04288299e-05
      -8.67361738e-19 -2.04288299e-05 -8.67361738e-19 -8.67361738e-19
      -1.02143376e-05 -1.89047114e-05 -2.04288299e-05 -8.67361738e-19
      -8.67361738e-19 -9.11478477e-04 -1.13380875e-03 -1.83440093e-03
      -3.09567619e-03 -2.31209351e-03 -2.49443017e-03 -2.17946502e-03
      -9.38938756e-04 -1.87867216e-03 -1.94626069e-03 -1.52746635e-03
      -1.79609167e-03 -2.20771995e-03 -2.44915951e-03 -2.28074542e-03
      -2.43111956e-03 -2.20030406e-03 -1.71305647e-03 -1.61243591e-03
      2.03880074e-04 3.79050616e-04 -7.93592364e-04 -1.53879565e-03
      -1.85458036e-03 -9.23377171e-04 3.48062276e-05 4.77282825e-04
      8.29352997e-04 6.89603330e-04 6.95674898e-05 -5.14387677e-04
      -5.93714882e-04 1.55810994e-04 1.09722873e-03 1.26197981e-03
      4.44250618e-04 -1.27101521e-04 -3.83987965e-04 5.16116736e-04
      3.52480216e-04 -1.21202180e-03 -1.51643262e-03 -1.05546124e-03
      5.97672770e-04 4.58288006e-04 -1.32372149e-03 -1.00443326e-03
      -1.32317666e-03 -1.80910469e-03 -1.66330347e-03 -1.05855416e-03
      -1.29394222e-03 -1.24566839e-03 -1.77978049e-03 -2.44718068e-03
      -2.47741421e-03 -7.81898212e-04 -8.39682121e-04 -2.49072211e-03
      -2.26320489e-03 -2.85296189e-03 -2.60781404e-03 -1.10316521e-03
      -1.20531011e-03 -8.67361738e-19 -6.30150680e-06 -8.67361738e-19
      -8.67361738e-19 -8.67361738e-19 -2.04288299e-05 -6.30150680e-06
      -2.04288299e-05 -1.26031091e-05 -8.67361738e-19 -9.60162317e-04
      -1.13380875e-03 -2.12102151e-03 -3.01375519e-03 -2.34426116e-03
      -2.44574645e-03 -1.72681897e-03 -1.33857582e-04 -1.04426686e-03
      -1.56693510e-03 -1.57476088e-03 -1.48196612e-03 -1.54238846e-03
      -1.39394857e-03 -1.58670440e-03 -2.13972130e-03 -2.55933544e-03
      -2.53346912e-03 -2.47761956e-03 -1.65247440e-03 -1.15480740e-03
      -1.61639380e-03 -7.37127615e-04 2.03380347e-04 3.59146477e-04
      1.44437232e-04 -1.05092258e-05 -1.51328306e-04 -3.14100558e-04
      -5.42072637e-04 -5.54016209e-04 -5.47259813e-04 -8.03691568e-04
      -7.31120701e-04 -8.09993187e-04 -1.42277288e-03 -1.44406653e-03
      -1.18590565e-03 -1.93460684e-04 2.69399781e-04 3.27228568e-04
      -9.26425506e-04 -1.58966321e-03 -1.16959447e-03 -1.15205406e-03
      -1.93897961e-03 -1.99132646e-03 -2.37135682e-03 -2.69929017e-03
      -2.60628993e-03 -1.85442029e-03 -1.96027313e-03 -1.98111194e-03
      -2.48219166e-03 -2.73471070e-03 -2.54805130e-03 -7.44953111e-04
      -6.87988941e-04 -2.44529173e-03 -2.28993548e-03 -2.77581858e-03
      -2.77231541e-03 -1.12359424e-03 -1.21552462e-03 -8.67361738e-19
      -2.67303367e-05 -8.67361738e-19 -8.67361738e-19 -8.67361738e-19
      -8.67361738e-19 -3.93335431e-05 -1.02143376e-05 -3.78095210e-05
      -4.08578162e-05 -9.60162317e-04 -1.12359424e-03 -2.44545168e-03
      -2.84904893e-03 -2.26015644e-03 -2.60155741e-03 -1.45625987e-03
      -5.58496358e-05 -9.49947804e-04 -1.54955441e-03 -1.53695128e-03
      -1.47718866e-03 -1.43567112e-03 -1.40807603e-03 -1.46306108e-03
      -2.18926999e-03 -2.41567288e-03 -2.51456443e-03 -2.39417446e-03
      -1.13112514e-03 9.82321144e-05 3.99934361e-05 -8.15135543e-04
      -7.10646855e-04 -3.34529876e-04 -3.39306949e-04 -5.16866567e-04
      -5.05127828e-04 -4.18634445e-04 -3.84942337e-04 -3.37577978e-04
      -5.62046887e-04 -8.81699612e-04 -8.27828655e-04 -8.53239850e-04
      -1.36539887e-03 -1.58183742e-03 -1.42668583e-03 -8.79970728e-04
      -6.34412863e-04 -6.65261236e-04 -6.48040615e-04 -2.01446441e-04
      2.89464049e-04 -7.10896624e-04 -1.74251536e-03 -1.97394565e-03
      -2.46720016e-03 -2.57910485e-03 -2.49001756e-03 -1.97785860e-03
      -1.82357174e-03 -1.82768970e-03 -2.62519461e-03 -2.68602697e-03
      -2.43655639e-03 -8.39272281e-04 -5.15662075e-04 -2.37465487e-03
      -2.37490470e-03 -2.56873015e-03 -2.93224421e-03 -1.36066624e-03
      -1.23595365e-03 -8.67361738e-19 -4.17222545e-05 -1.65158435e-05
      -8.67361738e-19 -8.67361738e-19 -8.67361738e-19 -8.67361738e-19
      -1.02143376e-05 -6.30150680e-06 -4.32464331e-05 -1.00340892e-03
      -1.16922951e-03 -2.64232536e-03 -2.64587346e-03 -2.28754664e-03
      -2.68652663e-03 -1.20678928e-03 -2.52063146e-05 -1.00427342e-03
      -1.57628499e-03 -1.45523529e-03 -1.46545004e-03 -1.55107863e-03
      -1.53456279e-03 -1.37656811e-03 -2.12168111e-03 -2.49738852e-03
      -1.75243546e-03 -2.44033436e-04 2.50584970e-04 -7.43429235e-04
      -1.37973111e-03 -1.46165199e-03 -1.09442999e-03 -3.66697175e-04
      -3.62784282e-04 9.72776616e-05 5.21259091e-04 8.20072950e-04
      1.01196452e-03 9.20033955e-04 7.69455277e-04 6.43218227e-04
      6.34937780e-04 3.72863986e-04 -1.42343255e-04 -7.08008301e-04
      -1.10027683e-03 -7.10896740e-04 -7.78280257e-04 -9.85368853e-04
      -1.22696848e-03 -1.52446341e-03 -7.27572711e-04 8.04671377e-04
      4.27394669e-04 -1.41956494e-03 -2.49870773e-03 -2.65451893e-03
      -2.52457382e-03 -1.83399138e-03 -1.73555443e-03 -1.98741350e-03
      -2.61736894e-03 -2.46740505e-03 -2.51110643e-03 -7.40175950e-04
      -4.36994160e-04 -2.37704348e-03 -2.38989666e-03 -2.38273037e-03
      -2.95114913e-03 -1.64881104e-03 -1.24225509e-03 -2.04288299e-05
      -8.67361738e-19 -8.67361738e-19 -8.67361738e-19 -8.67361738e-19
      -8.67361738e-19 -6.30150680e-06 -8.67361738e-19 -6.30150680e-06
      -1.02143376e-05 -9.80591285e-04 -1.57492084e-03 -2.66600773e-03
      -2.41596741e-03 -2.34817411e-03 -2.69760564e-03 -9.57318756e-04
      -1.65158435e-05 -1.02078950e-03 -1.56281737e-03 -1.43002893e-03
      -1.46153686e-03 -1.34592457e-03 -1.40655157e-03 -1.43002893e-03
      -2.01150565e-03 -1.00072555e-03 8.86771377e-05 -2.59685039e-04
      -1.42211327e-03 -1.46927312e-03 -1.36235054e-03 -1.48512959e-03
      -3.15784739e-04 6.36007229e-04 9.38074256e-04 7.14674767e-04
      8.70630756e-05 -4.31237393e-04 -8.02417519e-04 -1.02429290e-03
      -1.34394551e-03 -1.67924992e-03 -1.39176473e-03 -1.16943463e-03
      -1.40864553e-03 -1.02572702e-03 -4.72665153e-04 4.07420361e-04
      3.36123892e-04 -4.42726305e-04 -1.35040691e-03 -1.63529860e-03
      -1.47079723e-03 -8.26509262e-04 4.28918866e-04 6.94495684e-04
      -1.30716024e-03 -2.50587426e-03 -2.45698565e-03 -1.88984093e-03
      -1.84704910e-03 -1.95438159e-03 -2.41069053e-03 -2.59170774e-03
      -2.59607541e-03 -9.54885036e-04 -1.88388440e-04 -2.27469369e-03
      -2.42857076e-03 -2.37490470e-03 -2.72210757e-03 -1.97192188e-03
      -1.16292795e-03 -3.06433212e-05 -8.67361738e-19 -2.28174467e-05
      -8.67361738e-19 -8.67361738e-19 -2.04288299e-05 -3.15079160e-05
      -8.67361738e-19 -8.67361738e-19 -3.78095210e-05 -9.09089867e-04
      -2.06883461e-03 -2.41567264e-03 -2.27494352e-03 -2.41596741e-03
      -2.51811254e-03 -8.71485041e-04 -6.75883057e-05 -9.90146073e-04
      -1.58172206e-03 -1.51499803e-03 -1.51413353e-03 -1.47871289e-03
      -1.48435484e-03 -1.11383467e-03 -4.51166765e-04 2.11251172e-04
      -9.08590155e-04 -1.42536685e-03 -1.55901979e-03 -1.25781691e-03
      -7.35603448e-04 -2.61414098e-04 -2.30815553e-04 -3.01497348e-04
      -9.88872023e-04 -1.40177412e-03 -1.36244053e-03 -1.47327583e-03
      -1.47871301e-03 -1.46067247e-03 -1.67253811e-03 -2.06455681e-03
      -1.87616830e-03 -1.92678603e-03 -2.47350172e-03 -2.63017695e-03
      -2.35636486e-03 -1.44629541e-03 -4.85767989e-04 2.00536888e-04
      -3.41400941e-04 -9.57273936e-04 -1.23718299e-03 -7.60444906e-04
      -9.19099606e-04 -4.19908611e-04 -5.58498868e-05 -8.19708104e-04
      -2.13926681e-03 -1.93461182e-03 -1.68991904e-03 -2.00154097e-03
      -2.43503251e-03 -2.66234460e-03 -2.43177894e-03 -8.82519176e-04
      -3.19652405e-04 -2.21320218e-03 -2.55917525e-03 -2.35904823e-03
      -2.46917875e-03 -2.31459714e-03 -1.15032471e-03 -2.04288299e-05
      -5.67143288e-05 -8.67361738e-19 -8.67361738e-19 -8.67361738e-19
      -2.04288299e-05 -8.67361738e-19 -2.52063146e-05 -1.02143376e-05
      -8.67361738e-19 -1.13462820e-03 -2.26962147e-03 -2.07081344e-03
      -2.31275312e-03 -2.57025426e-03 -2.29908037e-03 -8.81699554e-04
      -6.75883057e-05 -9.44510684e-04 -1.58411078e-03 -1.46153686e-03
      -1.30984397e-03 -1.52129971e-03 -9.59752710e-04 7.62698823e-04
      2.75541446e-04 -1.24368956e-03 -1.52273430e-03 -1.32062798e-03
      -6.77364820e-04 -1.97533504e-04 -4.12242749e-04 -1.62681320e-03
      -2.06649094e-03 -1.28138438e-03 -1.63757196e-03 -1.41417270e-03
      -1.48587907e-03 -1.34592445e-03 -1.22487487e-03 -1.10621378e-03
      -1.21832325e-03 -1.54056970e-03 -1.38978590e-03 -1.72402069e-03
      -2.41373898e-03 -2.63713859e-03 -2.47111288e-03 -1.95351662e-03
      -1.77402364e-03 -1.84811873e-03 -1.46363094e-03 -5.41323214e-04
      -4.23116871e-04 -4.83584183e-04 -6.58754725e-04 -8.37588392e-04
      -1.14982505e-03 -1.04738581e-04 -3.21631582e-04 -1.56973384e-03
      -1.72381545e-03 -2.00936664e-03 -2.56324816e-03 -2.60974816e-03
      -2.56151892e-03 -8.88820563e-04 -2.20556089e-04 -2.06282781e-03
      -2.55612703e-03 -2.37576920e-03 -2.28643231e-03 -2.28395360e-03
      -1.80157367e-03 -1.65158435e-05 -2.04288299e-05 -2.52063146e-05
      -8.67361738e-19 -8.67361738e-19 -2.28174467e-05 -8.67361738e-19
      -8.67361738e-19 -3.06433212e-05 -8.67361738e-19 -1.33734895e-03
      -2.46954360e-03 -1.69597066e-03 -2.26645800e-03 -2.54657213e-03
      -2.15719198e-03 -9.08430142e-04 -2.28174467e-05 -9.62550926e-04
      -1.63279462e-03 -1.40960002e-03 -1.32310693e-03 -1.20424083e-03
      9.50677553e-04 6.73816830e-04 -1.20460580e-03 -1.55597110e-03
      -1.22717337e-03 -6.58460020e-04 -5.62616740e-04 -2.55772145e-04
      -4.97211993e-04 -1.68266310e-03 -2.00195098e-03 -1.54477707e-03
      -1.51413376e-03 -1.28158915e-03 -7.28277490e-04 -6.49814785e-04
      -5.73740399e-04 -4.86382749e-04 -8.11267761e-04 -1.21436524e-03
      -8.83838220e-04 -8.69916053e-04 -1.58809393e-03 -1.99057697e-03
      -2.33375165e-03 -1.97785906e-03 -1.94853463e-03 -2.00306531e-03
      -1.28739094e-03 -3.79210687e-04 -2.47741438e-04 -1.35222086e-04
      1.97033878e-04 -7.93477171e-04 -1.61857763e-03 -1.59682916e-03
      -2.88599404e-04 3.07664217e-04 -1.39090035e-03 -2.02110573e-03
      -2.53717718e-03 -2.71514617e-03 -2.52675801e-03 -8.05580406e-04
      -2.82707333e-04 -2.03894102e-03 -2.65522348e-03 -2.40097567e-03
      -2.09977292e-03 -1.99494441e-03 -2.31200363e-03 -8.67361738e-19
      -4.71593230e-05 -1.02143376e-05 -8.67361738e-19 -8.67361738e-19
      -3.15079160e-05 -8.67361738e-19 -6.30150680e-06 -8.10560450e-05
      -1.00825542e-04 -1.80321268e-03 -2.06059893e-03 -1.64489821e-03
      -2.33120332e-03 -2.59154779e-03 -2.47466075e-03 -1.38714712e-03
      -4.53715387e-04 -1.41235348e-03 -2.10932782e-03 -1.88374438e-03
      -1.75075128e-03 5.16731408e-04 3.79620324e-04 -4.58992523e-04
      -8.01668037e-04 -6.16282749e-04 3.95836541e-05 8.94017558e-06
      2.29291370e-04 -1.47530460e-04 -1.93165863e-04 1.66275306e-04
      -8.63614376e-04 -1.51841156e-03 -1.15200912e-03 -1.03833026e-03
      -1.17503176e-03 -1.25501864e-03 -1.46322139e-03 -1.59534987e-03
      -1.71573996e-03 -1.78831106e-03 -1.61684852e-03 -1.79003994e-03
      -1.90062553e-03 -1.58331671e-03 -1.36469433e-03 -1.49991654e-03
      -1.55230833e-03 -3.62489576e-04 -8.84273250e-05 -4.52645967e-04
      -1.51238462e-04 6.48905116e-04 3.54868680e-04 1.63636782e-04
      -7.97754910e-04 -9.52041708e-04 -9.70082008e-04 3.41400941e-04
      4.93299041e-04 -1.84741418e-03 -2.01212033e-03 -2.17901031e-03
      -2.02319911e-03 -7.93592248e-04 -6.88194064e-04 -2.27947091e-03
      -2.59068329e-03 -2.50657857e-03 -2.02588271e-03 -1.70029327e-03
      -2.43020989e-03 -5.04128227e-04 -1.26031091e-05 -1.26031091e-05
      -8.67361738e-19 -8.67361738e-19 -8.67361738e-19 -6.69286674e-05
      -6.30150680e-06 -2.04288299e-05 -8.38113134e-04 -1.68216298e-03
      -1.78724143e-03 -1.62142084e-03 -2.21452117e-03 -2.40727724e-03
      -2.61177192e-03 -1.59880798e-03 -5.79747430e-04 -1.47709867e-03
      -2.15516798e-03 -2.01607798e-03 2.79659231e-04 6.29340706e-04
      -2.59889988e-04 -1.62317592e-04 1.03669103e-04 9.62506048e-04
      9.71856003e-04 1.16872985e-03 4.35515190e-04 -1.85135184e-04
      -3.57257639e-04 2.67305877e-04 1.23982166e-03 -3.14631397e-05
      -1.17132335e-03 -1.70420622e-03 -1.63727754e-03 -1.65140489e-03
      -1.64119038e-03 -1.63682271e-03 -1.69831456e-03 -1.67463243e-03
      -1.49275048e-03 -1.53731636e-03 -1.67965970e-03 -1.53319864e-03
      -1.57273700e-03 -1.24694302e-03 4.24686179e-04 1.50951627e-03
      -2.30565696e-04 -1.78628688e-04 5.23217659e-06 3.01862252e-04
      8.69711104e-04 9.05791647e-04 7.82353163e-04 -7.16613704e-06
      -2.10136699e-04 -6.77934513e-05 1.12375407e-03 8.71235272e-04
      -1.11374480e-03 -1.34344574e-03 -1.22087204e-03 -1.33953278e-03
      -1.21761847e-03 -1.93197362e-03 -1.97913288e-03 -1.95936370e-03
      -1.84309133e-03 -1.48385495e-03 -2.09708931e-03 -1.20904308e-03
      -8.67361738e-19 -8.67361738e-19 -8.67361738e-19 -8.67361738e-19
      -2.04288299e-05 -1.89047114e-05 -1.89047114e-05 -3.16604070e-04
      -1.26032054e-03 -1.02415762e-03 -1.71467045e-03 -1.63097563e-03
      -2.23124214e-03 -2.37099174e-03 -2.38425494e-03 -1.62772241e-03
      -5.53676335e-04 -1.11852225e-03 -2.03000056e-03 -1.48689825e-04
      3.92223534e-04 6.32657902e-05 -2.50130135e-04 -4.46389313e-04
      7.08872802e-04 3.76367097e-04 7.64722703e-04 -3.08823481e-04
      -9.74859635e-04 -1.37729757e-03 -1.38055079e-03 -1.12127583e-03
      -4.58652648e-04 8.85171903e-05 -1.11526891e-03 -1.58361148e-03
      -1.34151196e-03 -1.15612673e-03 -1.35773281e-03 -1.67779555e-03
      -1.90968055e-03 -1.96944317e-03 -1.55242311e-03 -1.18108303e-03
      -1.00204488e-03 -1.45102770e-03 -1.36173598e-03 -9.79431905e-04
      3.96285504e-05 -4.90820326e-04 -1.17798999e-03 -1.39228941e-03
      -1.43751525e-03 -6.16737467e-04 -2.19076886e-04 7.61469477e-04
      5.32837701e-04 6.35847158e-04 -2.64712289e-04 -5.37000480e-04
      -5.43961709e-04 9.14232107e-04 -1.53877030e-04 -1.48385519e-03
      -1.62533391e-03 -1.64815143e-03 -1.50428421e-03 -1.66619162e-03
      -1.52710162e-03 -1.63097563e-03 -1.50667271e-03 -1.65597722e-03
      -1.50057592e-03 -1.26032054e-03 -7.37287512e-04 -8.67361738e-19
      -8.67361738e-19 -8.67361738e-19 -6.30150680e-06 -8.67361738e-19
      -8.67361738e-19 -1.04367721e-03 -1.12798694e-03 -6.77774427e-04
      -1.71878829e-03 -1.54991937e-03 -2.18408252e-03 -2.31361785e-03
      -2.45748507e-03 -1.88156054e-03 -5.12818748e-04 -1.15003006e-03
      -1.14356878e-03 7.34943780e-04 1.95599700e-04 -1.69073843e-04
      -6.13074459e-04 5.06766781e-04 4.98076435e-04 6.49110007e-04
      -1.96259178e-04 -5.00715047e-04 -9.42691753e-04 -1.36815244e-03
      -9.88532323e-04 -4.69571678e-04 -5.56724845e-04 -2.37936722e-04
      4.02687903e-04 -3.03591427e-04 -7.76666333e-04 -6.87989348e-04
      -9.91535489e-04 -5.17800858e-04 5.65505237e-04 2.13684893e-04
      -5.76244376e-04 -8.01213086e-04 -6.01745793e-04 -5.78473206e-04
      -2.02106283e-04 4.69002145e-04 -1.32795412e-03 -8.63364781e-04
      -2.94856145e-04 -6.46926230e-04 -1.23973168e-03 -1.18693011e-03
      -5.78518317e-04 -8.28053180e-06 4.33536246e-04 3.80075071e-04
      5.64140850e-04 -5.95898717e-04 -5.97422884e-04 -4.01618454e-04
      1.08721899e-03 -9.19054728e-04 -1.52796623e-03 -1.59946759e-03
      -1.60642911e-03 -1.57273700e-03 -1.58534024e-03 -1.53101457e-03
      -1.62228534e-03 -1.89263956e-03 -1.22828770e-03 -8.15954932e-04
      -1.29574130e-03 -2.83572008e-04 -1.89047114e-05 -8.67361738e-19
      -3.54206531e-05 -8.67361738e-19 -7.56192312e-04 -1.31855905e-03
      -5.79747430e-04 -5.74764970e-04 -1.67727075e-03 -1.58925320e-03
      -1.99457980e-03 -2.42292881e-03 -2.46378686e-03 -1.95067353e-03
      -5.10429789e-04 -7.45817961e-04 5.90211770e-04 7.18677533e-04
      -3.80734971e-04 -6.79139106e-04 4.16360534e-04 5.96308499e-04
      5.60227956e-04 5.12773549e-05 -5.66779694e-04 -7.27822830e-04
      -5.80861815e-04 4.37744020e-04 1.36717304e-03 -1.73851513e-04
      -5.23987401e-04 -6.31979492e-04 7.54758250e-04 1.22523936e-03
      6.98658347e-04 1.21959194e-04 -3.86536674e-04 3.40331520e-04
      7.84082513e-04 4.98531212e-04 4.02278121e-04 2.25128621e-04
      8.22301663e-04 8.41866131e-04 1.38084567e-03 4.30869150e-05
      -1.51440885e-03 -9.26425739e-04 3.79870442e-04 1.41235371e-03
      2.38891138e-04 -1.10109639e-03 -3.89220164e-04 -5.88732830e-04
      1.41888508e-04 6.22379419e-04 6.13689132e-04 3.71589675e-04
      -4.49642568e-04 -6.06113463e-04 3.10097821e-04 8.36224179e-04
      -1.39344903e-03 -1.65292877e-03 -1.55469682e-03 -1.53579225e-03
      -1.67249329e-03 -1.59641926e-03 -1.59469026e-03 -1.77855114e-03
      -1.04310748e-03 -4.66318597e-04 -1.06258201e-03 -1.15949498e-03
      -8.67361738e-19 -8.67361738e-19 -2.04288299e-05 -5.35636209e-04
      -1.32724934e-03 -8.20732384e-04 -4.13516915e-04 -5.42597321e-04
      -1.55469682e-03 -1.69856427e-03 -1.91133947e-03 -2.35056295e-03
      -2.37729354e-03 -2.10389076e-03 -4.12857509e-04 4.21183067e-04
      7.71683932e-04 2.43418908e-04 -7.14559981e-04 -8.69481155e-05
      7.96890352e-04 3.25954257e-04 8.21257272e-05 -6.25677640e-04
      -5.75469981e-04 2.45557603e-04 7.27163046e-04 1.02149427e-03
      1.06906367e-03 -4.18824748e-05 -9.71606176e-04 1.14543400e-04
      -4.49757536e-05 -1.07581996e-04 -2.58410670e-04 -1.33252691e-03
      -1.55180867e-03 -3.71839531e-04 2.47965309e-05 1.39226468e-05
      -2.56227097e-04 -7.60855037e-04 -5.43302333e-04 -5.49398770e-04
      -1.54466688e-05 -6.54297241e-04 -9.07840498e-04 -1.00199983e-03
      2.67350813e-04 -1.04433706e-03 -1.03889999e-03 2.71878409e-04
      1.60613436e-05 -6.76090713e-04 -4.47253871e-04 1.89707716e-04
      1.97738394e-04 6.73451927e-04 3.45813851e-06 -4.25300706e-04
      -3.49681475e-04 5.65005408e-04 -5.16366621e-04 -1.59230176e-03
      -1.46820361e-03 -1.55860966e-03 -1.67727075e-03 -1.51058554e-03
      -1.58686447e-03 -1.80462201e-03 -1.04722520e-03 -4.47413797e-04
      -5.61502122e-04 -1.27922534e-03 -9.13732394e-04 -1.89047114e-05
      -3.37897567e-04 -1.16579654e-03 -9.38938756e-04 -3.78096069e-04
      -5.48239448e-04 -5.56065061e-04 -1.36301015e-03 -1.70074799e-03
      -1.79593172e-03 -2.31991964e-03 -2.30818056e-03 -2.41662725e-03
      -3.24635068e-04 1.61166117e-03 -2.69284821e-04 -2.97289720e-04
      2.05814184e-04 7.13650254e-04 3.96591175e-04 4.19408869e-04
      -4.10308770e-04 -5.64390677e-04 -1.70393134e-04 1.06135290e-03
      1.08726393e-03 9.15231707e-04 1.17248297e-03 7.35648442e-04
      -6.56096308e-05 9.80270488e-05 -5.28015335e-05 -4.56808950e-04
      -6.32843818e-04 -1.33079756e-03 -1.02959492e-03 -1.28875516e-04
      4.25960490e-04 4.72460437e-04 -9.34546115e-05 -3.82713653e-04
      -5.10929502e-04 -6.82392099e-04 -3.94452334e-04 -6.36257231e-04
      -6.52273244e-04 6.23743632e-04 -1.02181407e-03 -1.70502602e-03
      -1.87491905e-03 -1.31667044e-03 7.26913102e-04 -1.60178635e-04
      -8.20822723e-04 -3.34894430e-04 7.19951815e-04 2.46422132e-04
      6.56935794e-04 -3.30117007e-04 -6.13279582e-04 3.38352576e-04
      5.70442469e-04 -1.08528510e-03 -1.71573996e-03 -2.01892178e-03
      -2.06237310e-03 -1.84527517e-03 -1.64032564e-03 -1.77158986e-03
      -8.55333696e-04 -5.41937829e-04 -5.37160260e-04 -6.74271490e-04
      -1.20990770e-03 -6.36461889e-04 -1.01847085e-03 -1.29182858e-03
      -4.07215208e-04 -5.48239448e-04 -5.33247367e-04 -5.09565114e-04
      -1.11547345e-03 -1.78724143e-03 -1.63011136e-03 -2.33099842e-03
      -2.26015667e-03 -2.45357212e-03 9.32498733e-05 1.90330902e-03
      -5.58748725e-04 -9.03857697e-04 6.74771203e-04 9.42736864e-04
      4.60471754e-04 -3.67721746e-04 -5.01579547e-04 -4.05531347e-04
      9.65964224e-04 1.55922445e-03 1.23636355e-03 9.98016912e-04
      1.29455712e-03 1.04874955e-03 4.24436323e-04 -2.62733607e-04
      -1.61453208e-04 7.36854272e-05 -2.09272417e-04 -7.52074586e-04
      -2.99178791e-04 6.17192243e-04 8.96441925e-04 7.82353338e-04
      8.03236908e-04 2.22739909e-04 -5.27445867e-04 4.71595740e-05
      1.22574071e-04 -7.54463370e-04 -1.15212391e-03 6.14598801e-04
      8.75103287e-04 -7.36308168e-04 -1.50637794e-03 -2.30911537e-03
      -6.43922831e-04 7.14309863e-04 -3.59031430e-04 -6.75225921e-04
      2.95560632e-04 1.14636705e-03 8.94712750e-04 6.54342235e-04
      -7.73483989e-05 1.47575585e-04 1.44279224e-03 4.90090926e-04
      -1.64337421e-03 -2.47161253e-03 -2.43314332e-03 -2.21320172e-03
      -1.62924663e-03 -1.62380957e-03 -6.03884284e-04 -5.60842629e-04
      -4.91524988e-04 -4.04826482e-04 -9.26335575e-04 -1.44936866e-03
      -5.68668242e-04 -1.39895582e-03 -7.13605143e-04 -4.60016978e-04
      -4.89136146e-04 -6.28431037e-04 -8.11222475e-04 -1.82505103e-03
      -1.64032564e-03 -2.19820999e-03 -2.39142100e-03 -2.36946763e-03
      8.71440163e-04 1.35197619e-03 -4.14426817e-04 -6.95245224e-04
      2.81388289e-04 4.56149079e-04 8.37338681e-04 -3.76616954e-04
      -5.62002009e-04 5.44371491e-04 1.41601672e-03 1.52141484e-03
      1.41631172e-03 7.17243296e-04 6.90422778e-04 1.26032055e-05
      -5.91031348e-05 -1.28420856e-04 2.99268810e-04 -2.27972094e-04
      1.05193438e-04 -3.22451000e-04 1.31149340e-04 3.84737650e-04
      -1.25172036e-03 -1.29364780e-03 3.53684387e-04 3.96226329e-04
      7.62104401e-06 -3.41017112e-05 -5.88982439e-05 -2.65281822e-04
      -1.09973224e-03 -4.79991315e-04 2.49860165e-07 3.67721746e-04
      -1.52309914e-03 -1.88513380e-03 -1.36824255e-03 1.11040135e-04
      6.15008408e-04 -3.56256387e-05 -2.69239943e-04 2.49880279e-04
      -2.37272016e-05 -2.91642700e-05 -7.11101631e-04 -9.47104592e-04
      1.04793021e-03 1.44019863e-03 -2.08346173e-03 -2.36316631e-03
      -2.33643549e-03 -1.90112495e-03 -1.65836595e-03 -1.54860003e-03
      -5.75629529e-04 -5.40208595e-04 -3.78096069e-04 -6.25382701e-04
      -1.19730458e-03 -9.57843615e-04 -8.67361738e-19 -5.41937829e-04
      -1.33355090e-03 -7.81398732e-04 -3.40286439e-04 -5.74105303e-04
      -7.25798542e-04 -1.73769309e-03 -1.54275342e-03 -2.07563583e-03
      -2.46226252e-03 -1.74251583e-03 9.57478769e-04 6.29180926e-04
      -2.50130135e-04 7.53693676e-05 -2.93421792e-04 5.40003879e-04
      -4.70276689e-04 1.34312737e-04 2.95560807e-04 1.69312733e-03
      2.05409271e-03 1.85589970e-03 1.92810572e-03 3.37782811e-04
      -4.14426555e-04 -1.66025740e-04 -2.54907820e-04 -1.15202885e-04
      1.30563613e-03 1.03466737e-03 -1.36906441e-04 -2.91193010e-05
      -6.20605424e-04 -2.60914414e-04 3.92189213e-05 1.61792836e-04
      -4.30442975e-04 -2.01651288e-04 -9.97562165e-05 -3.38967257e-05
      1.40279881e-03 5.04423049e-04 -1.24039128e-03 -1.22667395e-03
      -8.99605046e-04 -8.95942037e-04 3.05820053e-04 -9.35935474e-04
      -1.01724139e-03 -3.24225286e-04 9.00559477e-04 -1.56265742e-04
      -7.15219358e-04 -9.46899527e-04 1.52512774e-04 -1.49554355e-04
      -1.03054430e-04 -9.36890137e-04 7.54348468e-04 1.62751763e-03
      -1.55799533e-03 -2.44727056e-03 -2.40249978e-03 -1.70552544e-03
      -1.72747858e-03 -1.19937339e-03 -5.72581135e-04 -4.85223398e-04
      -5.79747430e-04 -1.18861406e-03 -9.95653216e-04 -1.89047114e-05
      -1.89047114e-05 -8.67361738e-19 -6.71882590e-04 -1.27053494e-03
      -8.00303533e-04 -4.89136146e-04 -4.78057103e-04 -1.53818063e-03
      -1.75832701e-03 -1.93502195e-03 -2.45748530e-03 -1.06708473e-03
      2.91602802e-04 4.64019977e-04 3.00792977e-04 1.56220776e-04
      1.40569216e-04 -3.13850847e-04 -7.74982153e-04 -6.68924360e-04
      3.48112313e-04 1.25563319e-03 1.36103132e-03 1.37363456e-03
      1.89350441e-03 -2.65781709e-04 -8.09743651e-04 3.04387413e-05
      2.02970565e-04 1.10851252e-03 1.54097925e-03 1.36712799e-03
      7.87995174e-04 5.63045433e-05 -6.76750380e-04 4.22502344e-04
      1.09554443e-03 8.54309532e-04 4.56399081e-04 -4.59857314e-04
      8.30353820e-05 1.32586015e-03 2.60709458e-05 -9.84369253e-05
      1.14245398e-03 1.91481915e-04 -2.64805731e-05 -8.33630795e-04
      8.88820796e-04 6.97384181e-04 -1.78963039e-03 -1.96937355e-03
      -4.35105409e-04 -9.21802930e-05 -1.05859933e-03 -1.17898954e-03
      -3.48062276e-05 -1.39339871e-04 -9.67529049e-05 -3.84237821e-04
      5.79632469e-04 1.25349418e-03 -1.05687021e-03 -2.48660450e-03
      -2.27209996e-03 -1.66944496e-03 -1.90046534e-03 -8.94667464e-04
      -4.78057103e-04 -6.04953850e-04 -1.24293973e-03 -9.20033955e-04
      -8.19207344e-05 -3.15079160e-05 -3.54206531e-05 -8.67361738e-19
      -3.15079160e-05 -9.70446796e-04 -1.03976449e-03 -4.78057103e-04
      -5.98652230e-04 -1.82628038e-03 -2.28288444e-03 -2.22159736e-03
      -2.90596858e-03 -9.18394944e-04 -9.93354595e-04 -3.82828759e-04
      5.40343754e-04 -5.09360456e-04 -1.56880473e-04 -1.28475239e-03
      -1.55988405e-03 -1.20130740e-03 3.57507321e-04 4.83334472e-04
      4.15745919e-04 4.94413485e-04 1.32628586e-04 -7.11011700e-04
      -1.18260772e-03 -2.04859447e-04 7.20451644e-04 1.07532030e-03
      7.67816091e-04 8.66048154e-04 6.50679285e-04 1.27646272e-04
      -8.24440795e-04 -3.58486868e-04 -1.10958179e-03 -1.04199327e-03
      -4.75623732e-04 -7.10352091e-04 6.48995163e-04 3.68426467e-04
      -1.83497078e-03 -1.61873759e-03 -6.51703682e-04 -3.45114458e-05
      -5.68213814e-04 1.17591597e-04 3.03636247e-04 -1.51486357e-03
      -2.50369054e-03 -2.59714504e-03 -2.04037526e-03 -5.06766839e-04
      -1.48360513e-03 -1.58031308e-03 -1.15089456e-03 -4.01368656e-04
      -7.92977517e-04 -3.67426954e-04 -9.83471327e-05 -9.66629377e-05
      -1.00422872e-03 -3.01202643e-03 -2.60735932e-03 -2.13357969e-03
      -2.32374226e-03 -9.25720728e-04 -4.78057103e-04 -7.56192312e-04
      -1.32008316e-03 -1.63841571e-04 -3.15079160e-05 -6.30150680e-06
      -2.04288299e-05 -6.30150680e-06 -8.67361738e-19 -8.75922735e-04
      -9.51541995e-04 -4.39382857e-04 -6.36461889e-04 -1.62544858e-03
      -2.45587085e-03 -2.14704778e-03 -2.63409014e-03 -4.72665299e-04
      -1.55490183e-03 -8.15090840e-04 7.62673735e-04 -2.77680345e-04
      -5.43916773e-04 -1.72438566e-03 -1.63789198e-03 -7.23410049e-04
      -1.95554618e-04 2.74721970e-04 6.25472865e-04 6.87030333e-05
      -6.34278113e-04 -1.04046904e-03 -1.27626699e-03 4.03642480e-04
      1.04121864e-03 7.55212910e-04 7.54348352e-04 8.30627221e-04
      1.25094561e-03 1.38266478e-03 -4.28713916e-04 -4.75828623e-04
      -5.14297630e-04 -7.35968351e-04 -3.77596327e-04 -8.03517323e-05
      -1.45301572e-04 -1.97665463e-03 -2.77643348e-03 -2.86445091e-03
      -2.63343053e-03 -5.96513448e-04 9.08020651e-04 -2.83981935e-04
      -1.75239053e-03 -1.69826974e-03 -2.65406445e-03 -2.75468477e-03
      -2.51085660e-03 -9.31612798e-04 -1.15196395e-03 -1.63636776e-03
      -1.65832101e-03 -4.74599161e-04 -9.08795046e-04 3.07594251e-04
      -1.26806539e-04 -1.10698817e-03 -5.91326330e-04 -2.74949800e-03
      -2.55105458e-03 -2.27439892e-03 -2.25656340e-03 -9.28519235e-04
      -4.30032989e-04 -6.36461889e-04 -1.31139287e-03 -8.67361738e-19
      -8.67361738e-19 -8.67361738e-19 -4.17222545e-05 -2.52063146e-05
      -1.26031091e-05 -1.06497086e-03 -9.57843615e-04 -4.40907024e-04
      -7.24684272e-04 -1.32445083e-03 -2.23506498e-03 -2.16900092e-03
      -1.88476918e-03 -5.74150588e-04 -1.94086868e-03 -1.08198670e-03
      7.05299666e-04 4.58832714e-04 -1.00789161e-03 -1.47598423e-03
      -1.39818119e-03 -5.35226485e-04 -1.61985168e-03 -8.05125979e-04
      3.63808940e-04 -5.50218392e-04 -8.00963491e-04 -8.83338798e-04
      -8.31196900e-04 1.25246996e-03 1.37763727e-03 5.34202030e-04
      1.15205394e-03 1.42154377e-03 1.16511201e-03 1.23356504e-03
      8.93893128e-04 -2.67670752e-04 -8.26374628e-04 -6.28386391e-04
      1.60018666e-04 8.65638372e-04 -7.02731195e-04 -1.96903339e-03
      -1.62915676e-03 -2.49825348e-03 -2.81424308e-03 -1.45250722e-03
      -1.14248462e-04 -2.02665757e-03 -1.98839302e-03 -1.72500033e-03
      -2.83401203e-03 -2.85835401e-03 -2.60604033e-03 -1.35081680e-03
      -9.11183772e-04 -1.82414160e-03 -1.67331309e-03 -8.04921088e-04
      -6.06932852e-04 6.79433753e-04 -1.35291964e-04 -1.76417397e-03
      -5.30698977e-04 -2.22814898e-03 -2.30178912e-03 -2.37567909e-03
      -1.79823057e-03 -8.69621173e-04 -4.37858689e-04 -6.30160270e-04
      -1.27836072e-03 -5.19367459e-05 -8.67361738e-19 -8.67361738e-19
      -2.52063146e-05 -8.67361738e-19 -1.02143376e-05 -1.00825645e-03
      -8.82224354e-04 -5.00010268e-04 -6.27771369e-04 -1.26098003e-03
      -1.83431129e-03 -2.37654382e-03 -9.98746604e-04 -6.15873083e-04
      -2.27119075e-03 -1.33409572e-03 7.62014242e-04 8.39157670e-04
      -1.05916895e-03 -1.81870477e-03 -1.28256856e-03 -4.63725039e-04
      -2.44413246e-03 -2.38741818e-03 -2.87485047e-04 -9.35730583e-04
      -7.12945766e-04 -7.50550418e-04 -2.30315884e-04 1.27635687e-03
      1.55367260e-03 1.11251522e-03 1.41742604e-03 1.18508609e-03
      1.27615198e-03 1.10687350e-03 1.36330503e-03 9.63005878e-04
      -3.34599667e-04 -4.07625281e-04 1.17293780e-03 1.24073110e-03
      8.74123769e-04 -7.81398790e-04 -1.77932600e-03 -1.71021326e-03
      -1.93950464e-03 -1.60003768e-03 -1.94992381e-03 -2.29874067e-03
      -1.59526023e-03 -2.04576715e-03 -2.83248792e-03 -2.68384325e-03
      -2.71382695e-03 -1.93279318e-03 -6.32798881e-04 -1.74090150e-03
      -1.64266943e-03 -1.14240916e-03 -8.27404438e-05 7.38331990e-04
      -5.46055671e-04 -2.13601370e-03 -5.93714998e-04 -1.71635498e-03
      -2.20528618e-03 -2.42217910e-03 -1.44788926e-03 -9.27859626e-04
      -5.39344037e-04 -6.58414850e-04 -1.21620938e-03 -8.67361738e-19
      -1.26031091e-05 -1.26031091e-05 -8.67361738e-19 -9.84366779e-05
      -6.30150680e-06 -1.05866930e-03 -8.94827594e-04 -4.18953889e-04
      -7.52938911e-04 -1.16970926e-03 -1.57351175e-03 -2.47629988e-03
      -5.84319991e-04 -4.99600777e-04 -2.15339428e-03 -1.54143409e-03
      3.91244161e-04 9.17620375e-04 -9.06156492e-04 -1.70786923e-03
      -9.74199793e-04 -7.30371277e-04 -2.67296890e-03 -2.59104837e-03
      -4.23936493e-04 -7.87495461e-04 -3.82828497e-04 -5.58863569e-04
      3.52525007e-04 8.19548208e-04 1.32483593e-03 1.30288256e-03
      1.21943781e-03 1.47739367e-03 1.11815718e-03 5.34202030e-04
      6.49949579e-05 9.41257575e-04 1.17120880e-03 1.13751693e-03
      8.43685179e-04 1.86704405e-04 4.06191073e-04 7.42199889e-04
      -7.45977974e-04 -1.71803893e-03 -1.85712881e-03 -1.66935485e-03
      -2.02447386e-03 -2.12814286e-03 -1.76758692e-03 -2.24441523e-03
      -2.76642386e-03 -2.62885797e-03 -2.78532854e-03 -2.55085016e-03
      -4.22002515e-04 -1.60094688e-03 -1.78567250e-03 -1.27453788e-03
      3.98205390e-04 7.62673735e-04 -9.37914359e-04 -2.23815860e-03
      -5.24602307e-04 -1.14327366e-03 -2.30351812e-03 -2.16269912e-03
      -1.26728171e-03 -9.17645113e-04 -5.08700556e-04 -5.59977954e-04
      -1.24771742e-03 -4.56351445e-05 -6.30150680e-06 -8.67361738e-19
      -8.67361738e-19 -2.04288299e-05 -8.67361738e-19 -1.01455802e-03
      -9.68057953e-04 -4.42636199e-04 -6.81232545e-04 -1.10669318e-03
      -1.26555259e-03 -2.16117501e-03 -4.44160571e-04 -5.04583004e-04
      -1.98279624e-03 -1.60185643e-03 -2.96380254e-04 8.93937948e-04
      -7.03595579e-04 -1.64180482e-03 -7.97959859e-04 -1.15892524e-03
      -2.71773967e-03 -1.57462631e-03 2.60434666e-04 -7.10556982e-04
      -1.00916601e-03 -5.09975129e-04 1.01840100e-03 6.82846934e-04
      8.91049684e-04 1.62039662e-03 1.37677288e-03 6.84371102e-04
      3.47952475e-04 5.39184373e-04 4.43545869e-04 1.01118989e-03
      1.64774188e-03 1.93110912e-03 1.11613341e-03 7.34739006e-04
      5.07016724e-04 1.34972230e-04 3.03181616e-04 -1.03284849e-03
      -1.66239392e-03 -2.07707053e-03 -2.18790560e-03 -2.09358637e-03
      -1.49159099e-03 -2.58083362e-03 -2.74990778e-03 -2.65950151e-03
      -2.69578677e-03 -2.54475325e-03 -5.13273349e-04 -1.40427798e-03
      -1.89650792e-03 -1.16151886e-03 7.39196548e-04 4.27119812e-04
      -1.20262674e-03 -2.12732353e-03 -5.61752240e-04 -6.14963472e-04
      -2.42609205e-03 -1.75889663e-03 -1.22251094e-03 -8.06605152e-04
      -4.36334609e-04 -6.36461889e-04 -1.32333662e-03 -2.04288299e-05
      -8.67361738e-19 -8.67361738e-19 -8.67361738e-19 -4.32464331e-05
      -1.26031091e-05 -8.82224354e-04 -1.00109016e-03 -4.41112177e-04
      -6.64716470e-04 -1.16340769e-03 -1.15710625e-03 -1.79823057e-03
      -1.38180549e-04 -3.35054414e-04 -1.89239008e-03 -1.40061497e-03
      -6.96269679e-04 5.95329097e-04 -1.70712869e-04 -1.68286799e-03
      -8.75762897e-04 -1.09458994e-03 -1.83842913e-03 -1.08910794e-03
      -7.33904890e-05 -9.87007865e-04 -1.54596183e-03 -8.59936918e-05
      1.30984397e-03 6.90672721e-04 7.43269338e-04 1.43241789e-03
      1.13162491e-03 2.77315557e-04 3.71179864e-04 9.79227130e-04
      9.50722548e-04 1.03070948e-03 1.83353678e-03 1.68291281e-03
      1.16217858e-03 9.21808125e-04 8.23166338e-04 6.29545655e-04
      5.55905339e-04 3.61669954e-04 -9.30908252e-04 -2.07381719e-03
      -2.38609873e-03 -1.57503597e-03 -2.15965090e-03 -2.69232877e-03
      -2.70513678e-03 -2.85205245e-03 -2.63907248e-03 -2.68231914e-03
      -8.17524269e-04 -1.18804455e-03 -1.85564987e-03 -9.03972657e-04
      9.18279868e-04 -2.28996592e-04 -1.42734556e-03 -1.96150295e-03
      -6.64966530e-04 -3.57007579e-04 -2.31286814e-03 -1.32053799e-03
      -1.21773337e-03 -8.35724291e-04 -5.12613449e-04 -6.67969871e-04
      -1.24293973e-03 -8.67361738e-19 -8.67361738e-19 -6.30150680e-06
      -8.67361738e-19 -8.67361738e-19 -8.67361738e-19 -7.56192312e-04
      -1.10278046e-03 -4.45024925e-04 -5.77358587e-04 -1.15471729e-03
      -1.17362244e-03 -1.43050868e-03 -8.79726213e-05 -1.62067678e-04
      -1.61420996e-03 -1.37236016e-03 -9.60981997e-04 -3.64454099e-05
      -1.07242093e-04 -1.09434035e-03 -2.47036864e-04 -3.65447864e-04
      -1.81495142e-03 -1.71066797e-03 -2.17053035e-04 -1.12543826e-03
      -1.29364780e-03 -1.71622523e-04 1.69342221e-03 1.21791346e-03
      7.12830748e-04 9.13867378e-04 1.28768594e-03 1.37392932e-03
      9.77043412e-04 3.07664042e-04 -7.27617706e-04 -4.38563555e-04
      2.18212503e-04 1.57130431e-04 -3.39466962e-04 -9.70581779e-04
      -6.88079104e-04 7.66861660e-04 1.39258429e-03 1.61668856e-03
      3.85352178e-04 -1.85585476e-03 -1.91841577e-03 -1.79279374e-03
      -2.71275779e-03 -2.57671601e-03 -2.62733386e-03 -2.68862071e-03
      -2.67296913e-03 -2.66732718e-03 -6.45402062e-04 -1.29105395e-03
      -1.66309834e-03 -4.75828361e-04 8.36564053e-04 -9.54225659e-04
      -1.50753732e-03 -1.81219808e-03 -3.42015643e-04 -4.99145943e-04
      -1.89885125e-03 -1.23252044e-03 -1.17209810e-03 -7.88359786e-04
      -4.37858689e-04 -8.34859733e-04 -1.15319330e-03 -8.67361738e-19
      -8.67361738e-19 -8.67361738e-19 -8.67361738e-19 -8.67361738e-19
      -8.67361738e-19 -6.11255469e-04 -1.19491562e-03 -5.39548928e-04
      -4.61541000e-04 -1.08539977e-03 -1.19643984e-03 -1.10669318e-03
      1.41318757e-04 -5.79337706e-04 -1.30147359e-03 -1.26477820e-03
      -9.69672343e-04 -6.53227849e-04 -2.18736983e-04 -4.28009400e-04
      1.54376859e-04 -5.91031392e-04 -2.54018046e-03 -1.64221495e-03
      -3.19402840e-04 -9.18759732e-04 -6.38395955e-04 -2.97449675e-04
      2.92352313e-04 5.03808318e-04 1.27005531e-03 6.26997033e-04
      1.05031882e-03 1.61100156e-03 2.24120682e-03 9.46399756e-04
      -1.07379630e-03 -6.67400192e-04 -2.09022401e-04 -3.36169003e-04
      -1.02379324e-03 -1.25720247e-03 -3.53139592e-04 1.84070284e-03
      2.12188601e-03 1.31259742e-03 8.92778742e-04 4.20568191e-04
      -1.20538031e-03 -2.38741818e-03 -2.71753478e-03 -2.50999210e-03
      -2.70904973e-03 -2.80098012e-03 -2.77750264e-03 -2.69405777e-03
      -5.18915302e-04 -1.52207445e-03 -1.28755113e-03 1.61963562e-05
      2.26083052e-04 -1.23392988e-03 -1.40061497e-03 -1.75741781e-03
      -1.89457904e-04 -6.37576275e-04 -1.50592299e-03 -1.18231250e-03
      -1.22403493e-03 -6.91447058e-04 -4.19818505e-04 -9.02653206e-04
      -1.01455802e-03 -2.04288299e-05 -8.67361738e-19 -8.67361738e-19
      -1.26031091e-05 -8.67361738e-19 -8.67361738e-19 -4.03302576e-04
      -1.25793170e-03 -6.12779462e-04 -4.33945883e-04 -9.56978882e-04
      -1.19730458e-03 -1.12473371e-03 5.63821115e-04 -3.45928536e-04
      -1.26300438e-03 -9.67033673e-04 -1.09072204e-03 -9.15551500e-04
      -7.56851980e-04 -9.77203483e-04 -6.26042543e-04 -8.60316213e-04
      -2.14181538e-03 -1.62285531e-03 9.22253676e-05 -3.14375415e-04
      -1.05002394e-03 -1.18479133e-03 -5.89347328e-04 -1.67829543e-03
      1.02038006e-03 1.11251522e-03 1.15373812e-03 1.35538937e-03
      1.55642594e-03 1.31630548e-03 1.05853083e-04 -6.47450943e-05
      4.82470030e-04 1.24393951e-03 1.46495027e-03 1.08985754e-03
      1.23677333e-03 1.35497958e-03 1.41515210e-03 1.51816162e-03
      1.15398795e-03 1.55280798e-03 -9.27500514e-05 -2.48630997e-03
      -2.63429480e-03 -2.74340133e-03 -2.52671307e-03 -2.76012206e-03
      -2.67210463e-03 -2.43544229e-03 -7.94706633e-04 -1.31930877e-03
      -6.05568639e-04 3.74898773e-05 -4.92844323e-04 -1.32433616e-03
      -1.09809311e-03 -1.51074573e-03 -2.34888415e-04 -1.89867686e-04
      -1.18536083e-03 -1.16579654e-03 -1.13017054e-03 -6.18216523e-04
      -3.84397659e-04 -1.14841573e-03 -7.75097113e-04 -3.93335431e-05
      -8.67361738e-19 -8.67361738e-19 -2.52063146e-05 -8.67361738e-19
      -8.67361738e-19 -2.07952791e-04 -1.22012210e-03 -6.94700284e-04
      -4.84358723e-04 -7.80534057e-04 -1.18470134e-03 -1.10669353e-03
      4.61471122e-04 3.43424792e-04 -1.43751525e-03 -6.52773131e-04
      -7.89064623e-04 -1.94894979e-04 -9.50927380e-04 -1.36057648e-03
      -4.95847722e-04 1.59154282e-04 -1.84559484e-03 -1.78583234e-03
      -5.55200735e-04 -1.12589297e-03 -1.60551944e-03 -1.51989085e-03
      -2.12730360e-04 -2.09861388e-03 -1.62310526e-03 1.04645104e-03
      1.89350441e-03 1.45428104e-03 1.28063466e-03 6.89308334e-04
      -4.08784603e-04 -5.85229718e-04 4.29418491e-04 1.53859064e-03
      1.96932838e-03 1.72722887e-03 1.54575671e-03 1.30345242e-03
      1.29064429e-03 1.71137240e-03 1.83744961e-03 8.16499873e-04
      5.98287443e-04 -7.11921311e-04 -2.20574113e-03 -2.76860758e-03
      -2.61625485e-03 -2.73186713e-03 -2.75077205e-03 -2.17032013e-03
      -6.76705269e-04 -1.11065130e-03 -2.70014338e-04 -3.61534971e-04
      -9.44670814e-04 -1.32672477e-03 -9.23787011e-04 -1.34167192e-03
      -1.95195298e-05 2.83448098e-05 -1.17839978e-03 -1.11299485e-03
      -1.01913034e-03 -4.32421715e-04 -5.23033028e-04 -1.25076552e-03
      -5.48239448e-04 -6.30150680e-06 -8.67361738e-19 -8.67361738e-19
      -1.89047114e-05 -8.67361738e-19 -8.67361738e-19 -6.30159266e-05
      -1.05628045e-03 -9.40462807e-04 -4.59152303e-04 -6.04089175e-04
      -1.09647890e-03 -1.13820145e-03 -1.63902450e-06 1.16795534e-03
      -1.35818799e-03 -8.98785482e-04 -2.21830458e-04 -1.17091928e-04
      -1.32169749e-03 -1.08869805e-03 5.55301485e-05 3.33005388e-04
      -2.40393425e-03 -2.88986205e-03 -1.18652033e-03 -8.41206522e-04
      -1.53249386e-03 -1.52141473e-03 -5.12408791e-04 -9.98541713e-04
      -2.65385956e-03 -1.18067348e-03 1.30954909e-03 2.17798608e-03
      1.97151210e-03 9.22717503e-04 -6.46971457e-04 -6.51088951e-04
      1.58199706e-04 1.15109957e-03 1.08091731e-03 1.18870428e-03
      1.39146997e-03 1.84416084e-03 2.15384900e-03 1.64988055e-03
      1.01180456e-03 2.59480090e-04 3.43379943e-04 7.52369408e-04
      -7.09737418e-04 -2.32745055e-03 -2.76881224e-03 -2.54780171e-03
      -2.71621556e-03 -1.80610141e-03 -4.83494368e-04 -5.86663838e-04
      -4.23231715e-04 -7.80784118e-04 -1.30151841e-03 -8.08833982e-04
      -9.71151458e-04 -1.37145084e-03 5.63571113e-04 -1.58974202e-04
      -1.21686887e-03 -1.22947199e-03 -8.34859733e-04 -3.65492859e-04
      -7.17517978e-04 -1.25315425e-03 -2.39460802e-04 -6.30150680e-06
      -8.67361738e-19 -8.67361738e-19 -8.67361738e-19 -6.30150680e-06
      -8.67361738e-19 -8.67361738e-19 -7.41200231e-04 -1.21382053e-03
      -4.36334609e-04 -4.80445829e-04 -9.57843615e-04 -1.21056743e-03
      -5.10589860e-04 1.48308044e-03 -6.39919890e-04 -1.31539581e-03
      -2.75291619e-04 -4.90455597e-04 -1.34801830e-03 -1.76524336e-03
      -2.69149808e-04 5.95329097e-04 -1.53269898e-03 -2.72643007e-03
      -2.17270898e-03 -2.90738302e-04 -1.24389445e-03 -1.50098605e-03
      -1.38298445e-03 -1.25577353e-04 -1.93279318e-03 -2.38680304e-03
      -6.77204865e-04 8.47303309e-04 1.83547055e-03 1.25654263e-03
      3.58758116e-05 -1.59928619e-04 -5.38709610e-05 3.34689539e-04
      2.52768863e-04 2.33204424e-04 5.55040722e-04 1.47862290e-03
      1.38623780e-03 1.04199338e-03 8.49896926e-04 5.48079552e-04
      3.73158895e-04 2.81228451e-04 6.02200394e-04 -8.11882317e-04
      -2.36698915e-03 -2.72947876e-03 -2.75077228e-03 -1.18240260e-03
      -3.93497903e-04 -1.33972673e-04 -1.06522103e-03 -1.18199282e-03
      -1.12177536e-03 -4.23731602e-04 -1.06719963e-03 -1.12304953e-03
      1.17969408e-03 -4.17795061e-04 -1.14841573e-03 -1.22555916e-03
      -5.72581135e-04 -4.33945883e-04 -9.25470900e-04 -1.14689174e-03
      -1.26031091e-05 -2.04288299e-05 -8.67361738e-19 -8.67361738e-19
      -8.67361738e-19 -6.30150680e-06 -8.67361738e-19 -8.67361738e-19
      -3.08778428e-04 -1.22881250e-03 -6.40374608e-04 -4.45024925e-04
      -7.45113124e-04 -1.06344698e-03 -1.00302452e-03 1.23706809e-03
      2.93921476e-04 -1.01938075e-03 -5.07836230e-04 -4.07420390e-04
      -6.12165080e-04 -2.23033270e-03 -1.31428172e-03 4.28439089e-04
      -1.20095159e-04 -2.79554306e-03 -2.58734007e-03 -8.75762897e-04
      -9.17485391e-04 -1.51902635e-03 -1.53945503e-03 -9.04017652e-04
      -3.64628475e-04 -1.78612722e-03 -1.81920442e-03 -7.34783825e-04
      8.60771048e-04 5.52607060e-04 -7.48251798e-04 -6.57185912e-04
      -6.23698987e-04 -7.96026085e-04 -7.88655074e-04 -9.20578896e-04
      -9.54475370e-04 6.36256998e-04 9.36595141e-04 1.18758983e-03
      8.61180772e-04 4.71595820e-04 4.22911980e-04 3.30776733e-04
      5.28969860e-04 5.91121381e-04 -1.01724174e-03 -2.49434053e-03
      -2.47304700e-03 -3.82873637e-04 -9.68227032e-05 -6.99887809e-04
      -1.77611748e-03 -9.28154739e-04 -8.44459748e-04 -3.79825273e-04
      -1.44447654e-03 4.96383291e-05 1.14579732e-03 -8.14181345e-04
      -1.14689174e-03 -8.98740313e-04 -4.76532936e-04 -4.96961933e-04
      -1.21143181e-03 -7.18382711e-04 -1.02143376e-05 -1.02143376e-05
      -8.67361738e-19 -8.67361738e-19 -8.67361738e-19 -8.67361738e-19
      -6.30150680e-06 -8.67361738e-19 -8.67361738e-19 -1.07757410e-03
      -9.32637195e-04 -4.53715387e-04 -5.05652220e-04 -9.12208285e-04
      -1.17992377e-03 1.26532279e-03 6.18806458e-04 -5.11909137e-04
      -3.48317262e-04 -7.47092243e-04 -4.95033637e-05 -1.58900337e-03
      -2.29334901e-03 -3.53709213e-04 8.67207535e-04 -1.67850032e-03
      -2.72165285e-03 -2.00211094e-03 -1.82086878e-04 -1.31930877e-03
      -1.41383277e-03 -1.41515210e-03 -5.81521541e-04 -3.61829909e-04
      -1.40955532e-03 -1.85614952e-03 -8.07354692e-04 4.98281501e-04
      -1.05728023e-03 -9.29064117e-04 -7.95411121e-04 -1.83451091e-04
      -1.42183417e-04 -3.12326592e-04 -1.99307542e-04 8.01872811e-04
      1.08198682e-03 9.84414364e-04 4.05691273e-04 -8.79266066e-04
      1.91481842e-04 5.22668299e-04 2.78839725e-04 3.41196050e-04
      3.56642791e-04 -9.79636912e-04 -1.36885699e-03 3.58666730e-04
      -2.00037059e-04 -1.48792809e-03 -1.69246760e-03 -6.26497262e-04
      -4.36539704e-04 -7.96435634e-04 -9.48743778e-04 6.66830572e-04
      9.50652407e-04 -1.13820122e-03 -1.19013828e-03 -6.34072989e-04
      -4.85223398e-04 -6.86874671e-04 -1.25401898e-03 -3.00087966e-04
      -3.06433212e-05 -6.30150680e-06 -8.67361738e-19 -8.67361738e-19
      -2.52063146e-05 -8.67361738e-19 -3.15079160e-05 -2.52063146e-05
      -8.67361738e-19 -5.60842629e-04 -1.28943974e-03 -5.26945747e-04
      -4.48937819e-04 -6.52977789e-04 -1.17753528e-03 2.11340986e-04
      1.32747437e-03 -1.73966371e-04 -1.64206373e-04 -4.63725039e-04
      -5.68668474e-04 -2.80728709e-04 -2.31530215e-03 -1.75894168e-03
      5.11884107e-04 3.29173454e-05 -2.30265385e-03 -2.75620935e-03
      -1.17000425e-03 -9.08160873e-05 -1.65049545e-03 -1.56618585e-03
      -1.53727119e-03 -7.42564676e-04 2.75746337e-04 -9.35365970e-04
      -1.59860332e-03 4.65249177e-04 -9.49697976e-04 -1.00163498e-03
      -7.34803762e-05 1.09306583e-03 1.06567552e-03 8.24895396e-04
      8.55333987e-04 1.01897074e-03 7.46887468e-04 1.59474032e-04
      -1.05575577e-03 -1.55901955e-03 -9.24446620e-04 1.84951023e-05
      3.13600933e-04 4.75508714e-04 2.20601141e-04 2.41894653e-04
      2.30200836e-04 2.47421704e-04 -1.07304647e-03 -2.33029411e-03
      -7.81238894e-04 -6.02565182e-04 -4.70891158e-04 -7.93592189e-04
      -1.13338800e-04 1.25663262e-03 2.12205530e-04 -1.20121753e-03
      -8.88525974e-04 -4.09604167e-04 -4.47413797e-04 -1.07518525e-03
      -9.99565935e-04 -3.15079160e-05 -8.67361738e-19 -2.52063146e-05
      -8.67361738e-19 -8.67361738e-19 -8.67361738e-19 -8.67361738e-19
      -8.67361738e-19 -8.67361738e-19 -5.67143288e-05 -8.67361738e-19
      -1.16970926e-03 -9.86962696e-04 -3.80485028e-04 -5.16731408e-04
      -9.16780555e-04 -4.32786823e-04 1.25033094e-03 2.23284704e-04
      -3.42175685e-04 1.83496159e-04 -1.02069974e-03 8.56737533e-05
      -1.23302022e-03 -2.28857156e-03 -1.36667315e-03 9.58478311e-04
      -1.11736276e-03 -2.58342712e-03 -2.60039838e-03 -7.42769567e-04
      -2.33159342e-04 -1.58834399e-03 -1.55683572e-03 -1.31387170e-03
      -6.96724339e-04 2.49880279e-04 4.83494339e-04 7.47751968e-04
      -9.41667531e-04 -8.58222542e-04 4.08130036e-05 1.02547719e-03
      1.13239954e-03 1.00093044e-03 9.81366029e-04 8.26419564e-04
      -2.14754211e-04 -1.06185244e-03 -1.26000063e-03 -1.81565643e-03
      -1.58966298e-03 -1.60612653e-05 5.18755405e-04 4.95278044e-04
      3.61420214e-04 6.08092232e-04 6.67490240e-04 -9.19169572e-04
      -2.02451856e-03 -1.67310808e-03 -2.10091792e-04 -6.46471512e-04
      -4.08944587e-04 -4.51486732e-04 9.50688336e-05 1.32595026e-03
      -5.50788362e-04 -1.10191584e-03 -5.67144249e-04 -4.60016978e-04
      -6.93176291e-04 -1.26423326e-03 -3.69405578e-04 -8.67361738e-19
      -1.26031091e-05 -8.67361738e-19 -8.67361738e-19 -8.67361738e-19
      -8.67361738e-19 -8.67361738e-19 -6.30150680e-06 -6.30150680e-06
      -8.67361738e-19 -8.67361738e-19 -4.51326516e-04 -1.33985258e-03
      -6.84485829e-04 -3.38762504e-04 -5.39548928e-04 -6.88149245e-04
      7.20951415e-04 7.69840030e-04 -1.58314957e-04 2.71968456e-04
      7.37301889e-05 -1.03243836e-03 -4.88437217e-05 -1.64744712e-03
      -2.12188601e-03 -6.63852144e-04 8.78946041e-04 -1.53397326e-03
      -2.69949483e-03 -2.39285524e-03 -3.83533275e-04 -4.32876666e-04
      -1.64571800e-03 -1.52314408e-03 -1.52990047e-03 -8.52125580e-04
      -1.58904324e-04 -1.20435063e-04 -8.77127110e-04 -8.17364315e-04
      3.90839341e-05 9.52906383e-04 8.70325894e-04 3.45723616e-04
      -1.40204400e-04 -9.41462407e-04 -8.98875529e-04 -1.02902518e-03
      -1.64551288e-03 -1.49143091e-03 -2.99223728e-04 2.25378564e-04
      5.40708541e-04 3.70975060e-04 3.53389536e-04 8.31991551e-04
      -2.32864360e-04 -1.71244191e-03 -2.32572155e-03 -1.01440361e-04
      -5.72581368e-04 -4.96097608e-04 -7.07517611e-05 -3.59556318e-04
      1.00584258e-03 7.92452833e-04 -1.20101240e-03 -6.08207367e-04
      -3.78096069e-04 -5.10429789e-04 -1.21620938e-03 -9.30248294e-04
      -1.02143376e-05 -1.26031091e-05 -2.52063146e-05 -8.67361738e-19
      -8.67361738e-19 -8.67361738e-19 -8.67361738e-19 -1.26031091e-05
      -8.67361738e-19 -8.67361738e-19 -1.89047114e-05 -6.30150680e-06
      -1.02143376e-05 -9.05041932e-04 -1.24293973e-03 -5.12818748e-04
      -4.45024925e-04 -5.27151045e-04 1.62862329e-04 1.19991810e-03
      2.49150762e-04 -1.82656688e-04 7.38991657e-04 -7.38606846e-04
      -3.49181792e-04 -5.71057142e-04 -2.02167523e-03 -2.24857801e-03
      1.94779932e-04 5.49488817e-04 -1.89407414e-03 -2.62626424e-03
      -2.32201349e-03 -6.97134179e-04 -2.03380405e-04 -1.40580209e-03
      -1.61659869e-03 -1.27412810e-03 -1.01250934e-03 -9.47104592e-04
      -8.45619070e-04 -9.64485225e-04 -7.79759604e-04 -7.05004903e-04
      -8.93643184e-04 -1.01469294e-03 -9.46899701e-04 -1.15225895e-03
      -9.76428564e-04 -1.50144077e-03 -1.35472964e-03 -2.37731874e-04
      4.55944246e-04 3.35554156e-04 8.95417252e-05 4.28349129e-04
      1.22532959e-03 8.57546820e-06 -1.78501289e-03 -2.13144114e-03
      -8.89435527e-04 -1.43162863e-04 -6.53432740e-04 4.59301773e-05
      -2.79569591e-04 1.17021998e-04 1.17232301e-03 -1.42422296e-05
      -7.57056929e-04 -4.15905757e-04 -3.90699250e-04 -9.38938756e-04
      -1.20990770e-03 -2.11865525e-04 -1.02143376e-05 -3.15079160e-05
      -8.67361738e-19 -8.67361738e-19 -8.67361738e-19 -8.67361738e-19
      -6.30150680e-06 -8.67361738e-19 -8.67361738e-19 -6.30150680e-06
      -1.26031091e-05 -8.67361738e-19 -1.65158435e-05 -1.99262315e-04
      -1.16035971e-03 -9.51541995e-04 -5.39549219e-04 -3.52024945e-04
      -1.55971007e-04 1.25206006e-03 4.27574560e-04 -3.10212898e-04
      1.69618637e-04 9.70421883e-04 -1.03828532e-03 -5.03679003e-05
      -9.83095029e-04 -1.58031308e-03 -6.58460136e-04 -7.45318248e-04
      -1.21600460e-03 -2.13444442e-03 -2.64603365e-03 -2.24116188e-03
      -1.09199632e-03 -5.28060365e-04 -6.82347163e-04 -1.34842808e-03
      -1.29064417e-03 -1.20547006e-03 -9.01673862e-04 -1.00859615e-03
      -1.09900266e-03 -1.05641573e-03 -1.00361416e-03 -9.22557607e-04
      -9.98836709e-04 -1.04879448e-03 -1.26543769e-03 -9.22922452e-04
      1.58449649e-04 5.23532799e-04 2.86665512e-04 4.63770033e-04
      3.59896047e-04 1.27462787e-03 1.55869988e-03 -2.86165770e-04
      -2.15339405e-03 -1.51379395e-03 7.85076190e-05 -8.44664639e-04
      2.79544212e-04 6.72686656e-05 -3.97365919e-04 5.08630706e-04
      8.62634974e-04 -5.32792823e-04 -3.89175431e-04 -4.26120096e-04
      -7.75097113e-04 -1.31073338e-03 -5.29334589e-04 -1.02143376e-05
      -3.54206531e-05 -8.67361738e-19 -8.67361738e-19 -1.26031091e-05
      -8.67361738e-19 -8.67361738e-19 -8.67361738e-19 -8.67361738e-19
      -1.26031091e-05 -2.52063146e-05 -8.67361738e-19 -4.41111224e-05
      -1.02143376e-05 -1.02143376e-05 -3.35508870e-04 -1.31073338e-03
      -8.63319554e-04 -5.18255460e-04 -2.91602890e-04 7.36762944e-04
      1.32767914e-03 -3.42164640e-05 -2.25243726e-04 5.07766323e-04
      4.54510038e-04 -1.09306572e-03 5.02528492e-05 1.00545221e-05
      -1.82022876e-03 -2.98245228e-03 -1.61914714e-03 -1.24339480e-03
      -2.44890968e-03 -2.66407360e-03 -2.35677464e-03 -1.63159065e-03
      -7.87540455e-04 -3.67676810e-04 -7.65792152e-04 -1.08569465e-03
      -1.37474900e-03 -8.86022288e-04 -7.41085445e-04 -7.79554714e-04
      -8.15840147e-04 -6.57845347e-04 -7.21271150e-04 -5.72831195e-04
      8.30353092e-05 5.25056967e-04 3.32505733e-04 2.75791390e-04
      3.33165459e-04 4.44205594e-04 1.21725374e-03 1.82295742e-03
      7.59785413e-04 2.58660530e-05 -3.58531746e-04 -1.19685530e-04
      -5.33042650e-04 6.96124116e-05 4.27574560e-04 -2.36982145e-04
      5.16172586e-05 9.35660617e-04 5.55085891e-04 -4.11992980e-04
      -4.66978090e-04 -6.45152293e-04 -1.29182858e-03 -7.24684272e-04
      -2.52063146e-05 -4.17222545e-05 -1.65158435e-05 -8.67361738e-19
      -2.52063146e-05 -3.78095210e-05 -8.67361738e-19 -8.67361738e-19
      -8.67361738e-19 -5.67143288e-05 -6.30150680e-06 -8.67361738e-19
      -2.52063146e-05 -8.67361738e-19 -3.54206531e-05 -2.28174467e-05
      -1.02143376e-05 -3.88310640e-04 -1.36744778e-03 -8.80700420e-04
      -4.55239409e-04 -6.14770272e-07 1.63036119e-03 9.24331776e-04
      -2.36982392e-04 -2.07203193e-04 8.96986341e-04 2.79134605e-04
      -1.13544788e-03 -1.22844777e-03 -2.19984935e-03 -2.80250446e-03
      -2.93834088e-03 -1.34315097e-03 -1.28968980e-03 -2.46130838e-03
      -2.63495464e-03 -2.59496132e-03 -2.35829875e-03 -1.87999173e-03
      -8.16000102e-04 -2.53793231e-04 -1.61441462e-03 -1.53965992e-03
      -9.37914359e-04 -5.26536198e-04 -7.68840546e-04 -7.12990644e-04
      3.66197637e-04 2.68625154e-04 3.91199166e-04 3.89879860e-04
      4.13357222e-04 3.80984653e-04 3.04910616e-04 1.03883003e-03
      1.92357809e-03 8.48667521e-04 -1.72986736e-04 5.79837477e-04
      8.46938463e-04 -5.03718446e-04 1.79583280e-04 8.45914008e-04
      -2.48926110e-04 -2.78704887e-04 9.76928277e-04 1.58299657e-03
      -1.42958030e-04 -3.15080048e-04 -6.90128189e-04 -1.28943974e-03
      -9.32637195e-04 -8.67361738e-19 -8.67361738e-19 -3.54206531e-05
      -1.02143376e-05 -8.67361738e-19 -8.67361738e-19 -8.67361738e-19
      -8.67361738e-19 -8.67361738e-19 -6.30150680e-06 -8.67361738e-19
      -8.67361738e-19 -8.67361738e-19 -6.30150680e-06 -8.67361738e-19
      -1.02143376e-05 -3.54206531e-05 8.25802272e-05 -4.32464331e-05
      -2.91602948e-04 -1.32333662e-03 -1.07279653e-03 -4.85223398e-04
      6.18306396e-04 2.12518428e-03 6.67445129e-04 7.87576791e-05
      2.87995626e-05 8.49826727e-04 -3.38066820e-05 -2.33111344e-03
      -2.53149052e-03 -2.14247522e-03 -2.72622542e-03 -2.72449641e-03
      -1.53504254e-03 -1.27403822e-03 -2.47086282e-03 -2.58388231e-03
      -2.47955346e-03 -2.56106444e-03 -2.01537367e-03 -1.72736924e-04
      -1.72525016e-03 -1.54835021e-03 -7.96435634e-04 -1.13610749e-03
      -2.32135365e-03 -2.12468486e-03 -3.74842959e-04 7.05004961e-04
      3.05775146e-04 3.34689626e-04 4.30737855e-04 1.56470633e-04
      1.06947345e-03 1.90467318e-03 9.39073740e-04 4.41112170e-05
      7.92817620e-04 9.09089926e-04 -1.26441882e-04 9.93915091e-05
      8.11357633e-04 -1.56995287e-04 -1.25942010e-04 6.03564724e-04
      2.00784253e-03 4.79876180e-04 -4.41112177e-04 -8.56153260e-04
      -1.23597879e-03 -8.00303533e-04 -8.67361738e-19 -6.30150680e-06
      -2.52063146e-05 -1.02143376e-05 -3.54206531e-05 -8.67361738e-19
      -1.89047114e-05 -8.67361738e-19 -8.67361738e-19 -8.67361738e-19
      -8.67361738e-19 -8.67361738e-19 -8.67361738e-19 -8.67361738e-19
      -8.67361738e-19 -8.67361738e-19 -8.67361738e-19 -8.67361738e-19
      8.25802272e-05 -2.52063146e-05 8.25802272e-05 -3.71794449e-04
      -1.12407422e-03 -1.20360614e-03 -5.95604011e-04 1.30024413e-03
      2.00718292e-03 4.72710031e-04 2.64757138e-04 4.49072832e-04
      9.32407391e-04 -1.78743547e-04 -2.24700873e-03 -2.49063247e-03
      -2.10314151e-03 -2.70798034e-03 -2.68841581e-03 -1.61198108e-03
      -1.33293646e-03 -2.30331346e-03 -2.61213700e-03 -2.50216620e-03
      -2.06426228e-03 -3.20517254e-04 -1.77479838e-03 -1.61919231e-03
      -7.85356620e-04 -1.55531149e-03 -2.79793143e-03 -2.76337541e-03
      -2.26463936e-03 -3.77026765e-04 6.58709905e-04 4.73984517e-04
      2.06678567e-04 9.06701200e-04 1.91727653e-03 8.41706293e-04
      1.39954544e-04 7.59990304e-04 9.76018840e-04 -1.37520910e-04
      -8.14211598e-05 9.23717045e-04 2.26332908e-04 2.19781403e-04
      6.39395439e-04 2.03000056e-03 1.28525204e-03 -4.34810587e-04
      -1.10908214e-03 -1.29660626e-03 -6.61668251e-04 6.30150680e-06
      -8.67361738e-19 -8.67361738e-19 -8.67361738e-19 -8.67361738e-19
      -8.67361738e-19 -8.67361738e-19 -8.67361738e-19 -8.67361738e-19
      -8.67361738e-19 -8.67361738e-19 -8.67361738e-19 -8.67361738e-19
      -8.67361738e-19 -8.67361738e-19 -8.67361738e-19 -8.67361738e-19
      -8.67361738e-19 -8.67361738e-19 -1.26031091e-05 -8.67361738e-19
      -4.49759063e-05 -8.67361738e-19 4.95480344e-05 -7.68136117e-04
      -1.41938473e-03 -9.22422798e-04 1.73098175e-03 1.89329928e-03
      5.27900294e-04 5.61592344e-04 7.28072599e-04 1.46306120e-03
      -7.16162976e-05 -2.03641737e-03 -2.64080148e-03 -2.00643344e-03
      -2.56040483e-03 -2.83075892e-03 -1.66391779e-03 -1.35900744e-03
      -2.16661207e-03 -2.69298838e-03 -1.86586427e-03 4.12287773e-04
      -2.99223728e-04 -3.79620382e-04 -2.30110993e-04 -1.47359550e-03
      -2.81988480e-03 -2.65319971e-03 -2.60365149e-03 -2.25137640e-03
      -2.91193137e-04 5.03968273e-04 1.10880728e-03 1.95269741e-03
      6.94585557e-04 3.44904111e-04 8.59746535e-04 8.70620657e-04
      -3.15285055e-04 -1.32493631e-04 1.25205994e-03 5.42277645e-04
      4.39677853e-04 3.79255420e-04 2.02847645e-03 1.65643205e-03
      -7.62493932e-04 -1.24141574e-03 -1.00368413e-03 -3.52889649e-04
      -8.67361738e-19 -5.43254610e-05 -8.67361738e-19 -8.67361738e-19
      -8.67361738e-19 -8.67361738e-19 -8.67361738e-19 -8.67361738e-19
      -8.67361738e-19 -8.67361738e-19 -8.67361738e-19 -8.67361738e-19
      -8.67361738e-19 -8.67361738e-19 -8.67361738e-19 -8.67361738e-19
      -8.67361738e-19 -8.67361738e-19 -8.67361738e-19 -8.67361738e-19
      -8.67361738e-19 1.41272276e-05 4.95480344e-05 2.67304331e-05
      -1.26031091e-05 -1.26031091e-05 -3.68746289e-04 -1.16493180e-03
      -1.16361282e-03 1.56607060e-03 1.82311726e-03 4.09898756e-04
      6.63942017e-04 9.02993314e-04 1.96850859e-03 7.10032356e-04
      -1.48055702e-03 -2.16076523e-03 -2.27439892e-03 -2.41892622e-03
      -2.44479231e-03 -1.81322265e-03 -1.49896194e-03 -2.18180893e-03
      -2.81902053e-03 -1.81652093e-03 -1.88040151e-03 -1.73851300e-03
      -1.70090829e-03 -2.38436973e-03 -2.80336896e-03 -2.72795442e-03
      -2.66666757e-03 -2.91964109e-03 -2.03971565e-03 7.28732150e-04
      1.79861544e-03 5.88322873e-04 4.19863616e-04 7.28482322e-04
      5.80701977e-04 -1.86454476e-04 6.01790671e-04 1.51779666e-03
      9.48628702e-04 6.38735772e-04 3.72953829e-04 1.96241192e-03
      1.72447541e-03 -1.07539038e-03 -1.19664520e-03 -8.06605152e-04
      -1.57539966e-04 1.03009304e-04 6.60641308e-05 -8.67361738e-19
      -8.67361738e-19 -8.67361738e-19 -8.67361738e-19 -8.67361738e-19
      -8.67361738e-19 -8.67361738e-19 -8.67361738e-19 -8.67361738e-19
      -8.67361738e-19 -8.67361738e-19 -8.67361738e-19 -8.67361738e-19
      -8.67361738e-19 -8.67361738e-19 -8.67361738e-19 -8.67361738e-19
      -8.67361738e-19 -8.67361738e-19 2.67304331e-05 -8.67361738e-19
      -8.67361738e-19 8.25802272e-05 1.65158435e-05 -8.67361738e-19
      2.19531630e-05 -1.23643345e-04 -6.63851912e-04 -5.86868904e-04
      9.14367090e-04 1.23488437e-03 5.72466524e-04 2.97334598e-04
      6.20900479e-04 1.93959428e-03 1.73032214e-03 -4.83744428e-04
      -1.76528853e-03 -1.55708578e-03 -1.98497996e-03 -2.41592270e-03
      -1.57746975e-03 -1.18083344e-03 -1.80478219e-03 -2.70711561e-03
      -2.62473989e-03 -2.48717424e-03 -2.60365149e-03 -2.64603342e-03
      -2.40611797e-03 -2.61300150e-03 -2.50739860e-03 -2.33527622e-03
      -1.66589685e-03 -3.03091685e-04 7.19542208e-04 1.10764790e-03
      1.34867802e-03 7.12785695e-04 2.26857694e-04 1.13289931e-03
      1.67142402e-03 7.08053412e-04 2.73857237e-04 5.54426224e-04
      1.41590158e-03 1.53893046e-03 -8.92848766e-04 -8.64184345e-04
      -1.53627334e-04 -8.67361738e-19 4.95482855e-05 -8.67361738e-19
      -1.89047114e-05 2.43417198e-05 -8.67361738e-19 -8.67361738e-19
      -8.67361738e-19 -8.67361738e-19 -8.67361738e-19 -8.67361738e-19
      -8.67361738e-19 -8.67361738e-19 -8.67361738e-19 -8.67361738e-19
      -8.67361738e-19 -8.67361738e-19 -8.67361738e-19 -8.67361738e-19
      -8.67361738e-19 -8.67361738e-19 -8.67361738e-19 -8.67361738e-19
      2.04288299e-05 -8.67361738e-19 -8.67361738e-19 -2.52063146e-05
      3.30319381e-05 3.30319381e-05 -1.02143376e-05 -1.65158435e-05
      -4.41111224e-05 -1.31468871e-04 -2.16393586e-04 1.36137113e-03
      8.27668817e-04 1.78308794e-04 2.66076677e-04 3.04955465e-04
      1.36935688e-03 1.84136233e-03 8.41251574e-04 -1.16745580e-03
      -1.46322139e-03 -1.42236333e-03 -1.80985441e-03 -1.43364735e-03
      -7.12331035e-04 -1.20262685e-03 -1.84984785e-03 -1.96957844e-03
      -1.89787196e-03 -2.05607153e-03 -2.18581175e-03 -2.00936687e-03
      -1.90981559e-03 -9.59003053e-04 -5.01989329e-04 -1.71726441e-03
      -6.87624502e-04 7.57761474e-04 2.00331997e-04 3.65288142e-04
      1.53385813e-03 1.26960059e-03 2.14549218e-04 2.15004227e-04
      3.20856954e-04 1.10386976e-03 1.20317144e-03 -8.38113134e-04
      -3.29207251e-04 1.02143376e-05 -1.26031091e-05 5.88980874e-05
      -1.02143376e-05 6.60641308e-05 -8.67361738e-19 -8.67361738e-19
      -8.67361738e-19 -8.67361738e-19 -8.67361738e-19 -8.67361738e-19
      -8.67361738e-19 -8.67361738e-19 -8.67361738e-19 -8.67361738e-19
      -8.67361738e-19 -8.67361738e-19 -8.67361738e-19 -8.67361738e-19
      -8.67361738e-19 -8.67361738e-19 -8.67361738e-19 -8.67361738e-19
      -8.67361738e-19 -8.67361738e-19 -8.67361738e-19 -1.73807857e-05
      6.36755140e-05 -8.67361738e-19 -2.52063146e-05 -1.49920725e-05
      -8.67361738e-19 1.19525561e-04 -2.28174467e-05 -1.06057916e-04
      1.15612420e-04 2.97289458e-04 1.82179804e-03 1.49020168e-03
      3.45198991e-04 -1.75695182e-04 -4.80810937e-04 3.12166638e-04
      1.24596339e-03 1.18442660e-03 6.60643782e-05 -9.14277334e-04
      -1.16918492e-03 -1.62360491e-03 -1.57187250e-03 -7.66451587e-04
      -1.01571751e-03 -1.86961726e-03 -1.96632510e-03 -1.87287049e-03
      -2.18474213e-03 -1.63163536e-03 -6.10845746e-04 -1.03507680e-03
      -1.62360491e-03 -1.11877208e-03 -7.21726101e-04 -2.49720353e-04
      7.82808114e-04 1.01016555e-03 4.63850847e-05 -2.36982392e-04
      -5.22568916e-05 3.40421539e-04 1.52760150e-03 1.56363694e-03
      4.71594176e-05 9.27948131e-05 2.04494747e-04 1.65158435e-05
      1.65158435e-05 -1.02143376e-05 2.19531630e-05 -6.30150680e-06
      6.36755140e-05 -6.30150680e-06 -8.67361738e-19 -8.67361738e-19
      -8.67361738e-19 -8.67361738e-19 -8.67361738e-19 -8.67361738e-19
      -8.67361738e-19 -8.67361738e-19 -8.67361738e-19 -8.67361738e-19
      -8.67361738e-19 -8.67361738e-19 -8.67361738e-19 -8.67361738e-19
      -8.67361738e-19 -8.67361738e-19 -8.67361738e-19 -8.67361738e-19
      1.41272276e-05 -8.67361738e-19 -8.67361738e-19 7.82562529e-06
      6.99771190e-05 1.65158435e-05 -8.67361738e-19 -6.30150680e-06
      6.21513973e-05 -5.04127238e-05 -8.67361738e-19 -7.78030517e-05
      9.67077067e-05 1.59814861e-03 2.52696266e-03 1.69769989e-03
      7.69999984e-04 9.39540842e-05 -2.30475896e-04 2.48286058e-04
      6.60324062e-04 1.11994559e-04 -3.97205906e-04 -8.27284006e-04
      -9.45080537e-04 -6.95860072e-04 -2.14914224e-04 -6.58146164e-05
      -9.94014321e-04 -1.42846012e-03 -2.55112565e-04 3.97884505e-05
      -4.22252604e-04 -9.01628868e-04 -5.78882929e-04 -3.53754323e-04
      -4.26325190e-04 3.04136105e-04 -6.41644920e-06 -1.36156756e-04
      -5.94680459e-05 6.89603330e-04 1.82113843e-03 2.55999481e-03
      1.45341642e-03 -7.86673336e-05 -8.67361738e-19 -2.04288299e-05
      -1.02143376e-05 -1.26031091e-05 -4.01984835e-05 -1.02143376e-05
      -1.02143376e-05 -1.49920725e-05 -8.67361738e-19 -8.67361738e-19
      -8.67361738e-19 -8.67361738e-19 -8.67361738e-19 -8.67361738e-19
      -8.67361738e-19 -8.67361738e-19 -8.67361738e-19 -8.67361738e-19
      -8.67361738e-19 -8.67361738e-19 -8.67361738e-19 -8.67361738e-19
      -8.67361738e-19 -8.67361738e-19 -8.67361738e-19 -8.67361738e-19
      -8.67361738e-19 -8.67361738e-19 2.04288299e-05 1.02143376e-05
      -6.30150680e-06 -1.02143376e-05 -8.67361738e-19 3.91273488e-06
      1.06922198e-04 -8.67361738e-19 -8.67361738e-19 6.30150680e-06
      9.90965709e-05 -1.02143376e-05 -8.67361738e-19 3.91288995e-06
      7.78645102e-04 2.06451188e-03 2.60954304e-03 1.97410583e-03
      1.29064429e-03 8.89480289e-04 7.13035581e-04 7.49116356e-04
      7.21726101e-04 1.32993300e-04 -2.83367233e-04 -5.48239506e-04
      3.37692938e-04 8.40796682e-04 1.29719579e-03 1.26177492e-03
      1.00336422e-03 6.21310028e-04 -1.42753037e-04 -6.44082786e-04
      -8.15110470e-05 1.56470633e-04 9.10364441e-04 7.33464782e-04
      7.82353163e-04 1.24892173e-03 2.14948133e-03 2.33984855e-03
      1.93238340e-03 6.96064613e-04 -8.67361738e-19 5.97626240e-05
      -1.02143376e-05 -8.67361738e-19 -1.02143376e-05 -8.67361738e-19
      4.95480344e-05 2.67305877e-05 -1.65158435e-05 3.30319381e-05
      2.67304331e-05 1.02143376e-05 -8.67361738e-19 -8.67361738e-19
      -8.67361738e-19 -8.67361738e-19 -8.67361738e-19 -8.67361738e-19
      -8.67361738e-19 -8.67361738e-19 -8.67361738e-19 -8.67361738e-19
      -8.67361738e-19 -8.67361738e-19 -8.67361738e-19 -8.67361738e-19
      -8.67361738e-19 -8.67361738e-19 -8.67361738e-19 -8.67361738e-19
      -8.67361738e-19 -8.67361738e-19 -8.67361738e-19 -8.67361738e-19
      -8.67361738e-19 -8.67361738e-19 -8.67361738e-19 -8.67361738e-19
      -8.67361738e-19 -8.67361738e-19 3.30319381e-05 3.30319381e-05
      -8.67361738e-19 -1.02143376e-05 7.23658886e-05 2.04494645e-04
      9.97267198e-04 2.00474937e-03 2.61584483e-03 2.18642643e-03
      1.41647144e-03 9.72925336e-04 8.90344847e-04 9.50107642e-04
      2.34683568e-04 -8.78606283e-04 -1.35275070e-03 -4.68752260e-04
      -3.34869437e-05 1.20390090e-04 -2.92512297e-04 -1.16131396e-03
      -1.42318278e-03 -1.01075406e-04 7.30166503e-04 8.26669217e-04
      9.66623775e-04 1.53360842e-03 2.29573715e-03 2.58672563e-03
      1.89543818e-03 1.02399767e-03 1.71462467e-04 -1.02143376e-05
      1.65158435e-05 1.65158435e-05 -1.02143376e-05 1.65158435e-05
      -8.67361738e-19 -8.67361738e-19 -8.67361738e-19 -8.67361738e-19
      -8.67361738e-19 -8.67361738e-19 -8.67361738e-19 -8.67361738e-19
      -8.67361738e-19 -8.67361738e-19 -8.67361738e-19 -8.67361738e-19
      -8.67361738e-19 -8.67361738e-19 -8.67361738e-19 -8.67361738e-19
      -8.67361738e-19 -8.67361738e-19 -8.67361738e-19 -8.67361738e-19
      -8.67361738e-19 -8.67361738e-19 -8.67361738e-19 -8.67361738e-19
      -8.67361738e-19 -8.67361738e-19 -8.67361738e-19 -8.67361738e-19
      -8.67361738e-19 -8.67361738e-19 -8.67361738e-19 -8.67361738e-19
      -8.67361738e-19 -8.67361738e-19 -8.67361738e-19 -8.67361738e-19
      -8.67361738e-19 1.65158435e-05 -8.67361738e-19 -1.02143376e-05
      6.30150680e-06 7.23658886e-05 -1.02143376e-05 1.71462467e-04
      7.99074071e-04 1.85610447e-03 2.65517877e-03 2.65126582e-03
      2.07950408e-03 1.67051447e-03 1.11526891e-03 9.63575731e-04
      -4.09399538e-04 -1.62503915e-03 -1.06333196e-03 -9.03198263e-04
      -1.81021937e-03 -1.01048523e-03 4.30283020e-04 1.02572714e-03
      1.66573701e-03 2.21706997e-03 2.63474975e-03 2.60324194e-03
      1.78612722e-03 6.81937323e-04 7.86674937e-05 -8.67361738e-19
      -1.02143376e-05 4.56353009e-05 8.25802272e-05 -8.67361738e-19
      -1.02143376e-05 -8.67361738e-19 -8.67361738e-19 -8.67361738e-19
      -8.67361738e-19 -8.67361738e-19 -8.67361738e-19 -8.67361738e-19
      -8.67361738e-19 -8.67361738e-19 -8.67361738e-19 -8.67361738e-19
      -8.67361738e-19 -8.67361738e-19 -8.67361738e-19 -8.67361738e-19
      -8.67361738e-19 -8.67361738e-19 -8.67361738e-19 -8.67361738e-19
      -8.67361738e-19 -8.67361738e-19 -8.67361738e-19 -8.67361738e-19
      -8.67361738e-19 -8.67361738e-19 -8.67361738e-19 -8.67361738e-19
      -8.67361738e-19 -8.67361738e-19 -8.67361738e-19 -8.67361738e-19
      -8.67361738e-19 -8.67361738e-19 -8.67361738e-19 -8.67361738e-19
      1.65158435e-05 -8.67361738e-19 -8.67361738e-19 -8.67361738e-19
      -8.67361738e-19 -1.02143376e-05 -1.02143376e-05 -1.02143376e-05
      6.30150680e-06 -2.04288299e-05 -1.02143376e-05 4.95480344e-05
      3.86171712e-04 9.27289948e-04 1.68703054e-03 2.37440504e-03
      2.70777522e-03 2.58997898e-03 2.50566914e-03 1.71141746e-03
      3.45608598e-04 2.27402314e-04 1.19768945e-03 2.22946820e-03
      2.74167187e-03 2.67560757e-03 2.44438206e-03 1.74288044e-03
      7.58216134e-04 1.79288341e-04 2.28176013e-05 -4.71593230e-05
      -1.02143376e-05 -8.67361738e-19 -3.91298590e-06 -3.06433212e-05
      -8.67361738e-19 -8.67361738e-19 6.30150680e-06 4.95480344e-05
      -8.67361738e-19 -8.67361738e-19 -8.67361738e-19 -8.67361738e-19
      -8.67361738e-19 -8.67361738e-19 -8.67361738e-19 -8.67361738e-19
      -8.67361738e-19 -8.67361738e-19 -8.67361738e-19 -8.67361738e-19
      -8.67361738e-19 -8.67361738e-19 -8.67361738e-19 -8.67361738e-19
      -8.67361738e-19 -8.67361738e-19</_></support_vectors>
  <uncompressed_sv_total>3</uncompressed_sv_total>
  <uncompressed_support_vectors>
    <_>
      1. 1. 1. 1. 1. 1. 1. 1. 1. 1. 1. 1. 1. 1. 1. 1. 1. 1. 1. 1. 1. 1.
      1. 1. 1. 1. 1. 1. 9.92156923e-01 9.84313786e-01 1. 1. 1.
      9.88235354e-01 1. 1. 8.19607913e-01 8.50980461e-01 1.
      9.84313786e-01 1. 9.68627512e-01 1. 9.92156923e-01 9.88235354e-01
      9.96078491e-01 1. 1. 9.96078491e-01 1. 1. 9.96078491e-01
      9.84313786e-01 9.92156923e-01 1. 1. 1. 1. 1. 1. 1. 1. 1. 1. 1. 1.
      1. 1. 1. 1. 1. 1. 1. 1. 1. 1. 1. 1. 1. 1. 1. 1. 1. 1. 1. 1. 1. 1.
      1. 1. 1. 1. 1. 1. 1. 1. 1. 1. 9.92156923e-01 1. 9.88235354e-01
      9.84313786e-01 1. 1. 9.92156923e-01 9.80392218e-01 9.96078491e-01
      1. 9.88235354e-01 8.39215755e-01 5.64705908e-01 5.13725519e-01
      7.96078503e-01 1. 9.68627512e-01 1. 1. 1. 1. 1. 9.80392218e-01
      9.88235354e-01 9.92156923e-01 9.96078491e-01 9.96078491e-01 1. 1.
      1. 1. 9.92156923e-01 1. 1. 1. 1. 1. 1. 1. 1. 1. 1. 1. 1. 1. 1. 1.
      1. 1. 1. 1. 1. 1. 1. 1. 1. 1. 1. 1. 1. 1. 1. 1. 1. 1. 1. 1. 1. 1.
      1. 1. 1. 1. 1. 1. 1. 1. 9.96078491e-01 1. 1. 9.92156923e-01 1.
      9.96078491e-01 1. 1. 6.98039234e-01 5.41176498e-01 5.68627477e-01
      7.09803939e-01 9.96078491e-01 1. 1. 9.92156923e-01 1.
      9.76470649e-01 1. 1. 1. 1. 1. 9.92156923e-01 9.96078491e-01 1. 1.
      1. 1. 1. 1. 1. 1. 1. 1. 1. 1. 1. 1. 1. 1. 1. 1. 1. 1. 1. 1. 1. 1.
      1. 1. 1. 1. 1. 1. 1. 1. 1. 1. 1. 1. 1. 1. 1. 1. 1. 1. 1. 1. 1. 1.
      1. 9.76470649e-01 1. 1. 9.80392218e-01 1. 1. 9.92156923e-01
      9.60784376e-01 8.70588303e-01 8.23529482e-01 7.33333349e-01
      6.07843161e-01 6.03921592e-01 7.64705956e-01 8.35294187e-01
      8.62745166e-01 1. 9.84313786e-01 9.80392218e-01 1. 1.
      9.72549081e-01 1. 1. 1. 1. 1. 9.96078491e-01 9.88235354e-01
      9.96078491e-01 1. 1. 1. 1. 1. 1. 1. 1. 1. 1. 1. 1. 1. 1. 1. 1. 1.
      1. 1. 1. 1. 1. 1. 1. 1. 1. 1. 1. 1. 1. 1. 1. 1. 1. 1. 1. 1. 1. 1.
      1. 1. 1. 1. 9.80392218e-01 1. 1. 1. 1. 1. 8.86274576e-01
      7.80392230e-01 6.66666687e-01 6.03921592e-01 5.72549045e-01
      6.19607866e-01 7.13725507e-01 7.33333349e-01 5.92156887e-01
      5.52941203e-01 6.15686297e-01 6.47058845e-01 7.80392230e-01
      9.29411829e-01 1. 9.76470649e-01 9.96078491e-01 1. 9.88235354e-01
      9.88235354e-01 9.96078491e-01 1. 1. 1. 9.96078491e-01
      9.96078491e-01 1. 1. 1. 1. 1. 1. 1. 1. 1. 1. 1. 1. 1. 1. 1. 1. 1.
      1. 1. 1. 1. 1. 1. 1. 1. 1. 1. 1. 1. 1. 1. 1. 1. 1. 1. 1. 1. 1. 1.
      1. 1. 1. 1. 1. 9.76470649e-01 9.92156923e-01 1. 8.19607913e-01
      6.15686297e-01 5.60784340e-01 5.68627477e-01 7.05882370e-01
      6.54901981e-01 7.21568644e-01 7.01960802e-01 6.90196097e-01
      7.33333349e-01 6.50980413e-01 6.58823550e-01 5.84313750e-01
      5.64705908e-01 6.19607866e-01 8.58823597e-01 1. 1. 1. 1. 1. 1.
      9.96078491e-01 1. 1. 1. 9.92156923e-01 1. 1. 1. 1. 1. 1. 1. 1. 1.
      1. 1. 1. 1. 1. 1. 1. 1. 1. 1. 1. 1. 1. 1. 1. 1. 1. 1. 1. 1. 1. 1.
      1. 1. 1. 1. 1. 1. 1. 1. 1. 1. 1. 9.72549081e-01 1. 9.96078491e-01
      9.80392218e-01 8.03921640e-01 5.52941203e-01 5.80392182e-01
      7.17647076e-01 6.11764729e-01 6.11764729e-01 5.37254930e-01
      5.84313750e-01 6.58823550e-01 6.39215708e-01 5.88235319e-01
      5.49019635e-01 6.19607866e-01 6.23529434e-01 6.94117665e-01
      5.80392182e-01 5.64705908e-01 8.19607913e-01 9.88235354e-01 1.
      9.72549081e-01 9.96078491e-01 1. 9.92156923e-01 9.88235354e-01 1.
      1. 1. 1. 1. 1. 1. 1. 1. 1. 1. 1. 1. 1. 1. 1. 1. 1. 1. 1. 1. 1. 1.
